{"learner":{"attributes":{"scikit_learn":"{\"_estimator_type\": \"classifier\"}"},"feature_names":["area","perimeter","lal","neighbour_dist","mean_interbuilding_distance","adjacency","corners","shape_idx","facade_ratio","compact_weighted_axis","circular_com","squareness","square_compact","rectangularity","rect_idx","perimeter_wall","num_neighbors","elongation","fractal","cwa","CAR","tes_area","shared_walls"],"feature_types":["float","float","float","float","float","float","float","float","float","float","float","float","float","float","float","float","float","float","float","float","float","float","float"],"gradient_booster":{"model":{"gbtree_model_param":{"num_parallel_tree":"1","num_trees":"100"},"iteration_indptr":[0,1,2,3,4,5,6,7,8,9,10,11,12,13,14,15,16,17,18,19,20,21,22,23,24,25,26,27,28,29,30,31,32,33,34,35,36,37,38,39,40,41,42,43,44,45,46,47,48,49,50,51,52,53,54,55,56,57,58,59,60,61,62,63,64,65,66,67,68,69,70,71,72,73,74,75,76,77,78,79,80,81,82,83,84,85,86,87,88,89,90,91,92,93,94,95,96,97,98,99,100],"tree_info":[0,0,0,0,0,0,0,0,0,0,0,0,0,0,0,0,0,0,0,0,0,0,0,0,0,0,0,0,0,0,0,0,0,0,0,0,0,0,0,0,0,0,0,0,0,0,0,0,0,0,0,0,0,0,0,0,0,0,0,0,0,0,0,0,0,0,0,0,0,0,0,0,0,0,0,0,0,0,0,0,0,0,0,0,0,0,0,0,0,0,0,0,0,0,0,0,0,0,0,0],"trees":[{"base_weights":[-6.7727424E-2,-4.00865E-1,2.0151584E0,7.7863693E-1,-7.370527E-1,2.9878118E0,5.2293938E-2,-1.1332599E0,2.0342863E0,-2.7675933E-1,-1.2804837E0,3.0363703E0,3.529955E-2,1.2957718E0,-9.156118E-1,-4.0814003E-1,1.9090602E-1,2.6636639E0,-3.9407563E-1,-7.897391E-1,5.865097E-1,-1.2920226E0,3.428546E-2,6.8852645E-1,3.0968494E0,-5.2922386E-1,1.7227703E0,-1.0318347E0,1.1968194E-1,1.7316E0,-3.4857172E-1,2.9407308E0,9.8075897E-1,-4.1487458E-1,-1.2515781E0,-9.5589405E-1,1.2953956E0,-1.2957517E0,-6.619634E-2,-2.1408969E-1,2.2959037E-1,3.7748376E-1,-6.619634E-2,1.7520753E0,9.5351547E-1,8.1697024E-2,-2.7415806E-1,-2.3325458E-1,2.0365214E0,-2.7147654E-1,-1.1457496E0,7.374442E-1,-3.274715E-3,2.6416773E-1,9.423782E-1,-2.3723842E-1,6.335061E-1,-3.0633613E-1,-4.059465E-3,-3.8164905E-1,-1.4401577E-1,5.6756926E-1,-3.533765E-1,5.596044E-1,-2.1901235E-1,-3.8979727E-1,-1.2623137E-1,-3.5850573E-2,7.390605E-1,6.989745E-1,-9.897751E-2,2.2959037E-1,-2.7415806E-1,-3.7405887E-1,-6.372624E-2],"categories":[],"categories_nodes":[],"categories_segments":[],"categories_sizes":[],"default_left":[0,0,0,0,0,0,0,0,0,0,0,0,0,0,0,0,0,0,0,0,0,0,0,0,0,0,0,0,0,0,0,0,0,0,0,0,0,0,0,0,0,0,0,0,0,0,0,0,0,0,0,0,0,0,0,0,0,0,0,0,0,0,0,0,0,0,0,0,0,0,0,0,0,0,0],"id":0,"left_children":[1,3,5,7,9,11,13,15,17,19,21,23,-1,25,27,-1,29,31,-1,33,35,37,39,41,43,45,47,49,-1,51,-1,53,55,57,59,61,63,65,-1,-1,-1,-1,-1,67,-1,-1,-1,-1,69,71,73,-1,-1,-1,-1,-1,-1,-1,-1,-1,-1,-1,-1,-1,-1,-1,-1,-1,-1,-1,-1,-1,-1,-1,-1],"loss_changes":[5.401689E2,2.6663135E2,2.047868E2,3.6074515E2,1.3037994E2,9.643982E0,4.5219868E1,1.8260025E1,1.9414398E2,1.2633847E2,3.6763306E0,7.882019E0,0E0,1.3713064E1,3.6442413E0,0E0,2.210286E1,3.278192E1,0E0,3.04225E1,1.1770921E2,6.623535E-1,2.2175145E0,1.8611842E0,1.9386597E0,1.4450145E0,1.2211044E1,1.3968906E0,0E0,6.2407846E0,0E0,2.4160583E1,2.633976E1,2.4353039E1,6.5315247E-1,2.3800505E1,8.61014E1,1.9195557E-1,0E0,0E0,0E0,0E0,0E0,8.473379E0,0E0,0E0,0E0,0E0,9.317871E0,3.2833393E0,1.3242455E0,0E0,0E0,0E0,0E0,0E0,0E0,0E0,0E0,0E0,0E0,0E0,0E0,0E0,0E0,0E0,0E0,0E0,0E0,0E0,0E0,0E0,0E0,0E0,0E0],"parents":[2147483647,0,0,1,1,2,2,3,3,4,4,5,5,6,6,7,7,8,8,9,9,10,10,11,11,13,13,14,14,16,16,17,17,19,19,20,20,21,21,22,22,23,23,24,24,25,25,26,26,27,27,29,29,31,31,32,32,33,33,34,34,35,35,36,36,37,37,43,43,48,48,49,49,50,50],"right_children":[2,4,6,8,10,12,14,16,18,20,22,24,-1,26,28,-1,30,32,-1,34,36,38,40,42,44,46,48,50,-1,52,-1,54,56,58,60,62,64,66,-1,-1,-1,-1,-1,68,-1,-1,-1,-1,70,72,74,-1,-1,-1,-1,-1,-1,-1,-1,-1,-1,-1,-1,-1,-1,-1,-1,-1,-1,-1,-1,-1,-1,-1,-1],"split_conditions":[5.3273263E0,1.8903592E-3,7.633588E-3,4.0605717E0,1.8869385E2,5.790965E3,4.130175E1,1.6420361E-3,3.459713E2,1.3049691E0,5.221953E0,5.382694E0,3.529955E-2,8.2692504E-1,7.802077E-1,-4.0814003E-1,1.6102774E2,2.1658273E0,-3.9407563E-1,1.9254074E0,4.275289E0,1.0039808E0,5.951594E-1,4.27585E0,1.0037297E0,1.1811024E-2,3E0,3.81146E-1,1.1968194E-1,8.6365265E-1,-3.4857172E-1,1.2771392E-3,2.6569077E-1,8.9177345E1,1.1636269E0,2.1367522E-3,1.6768652E1,1.0706826E1,-6.619634E-2,-2.1408969E-1,2.2959037E-1,3.7748376E-1,-6.619634E-2,9.999469E-1,9.5351547E-1,8.1697024E-2,-2.7415806E-1,-2.3325458E-1,9.700977E0,5.2131077E1,5.5183277E0,7.374442E-1,-3.274715E-3,2.6416773E-1,9.423782E-1,-2.3723842E-1,6.335061E-1,-3.0633613E-1,-4.059465E-3,-3.8164905E-1,-1.4401577E-1,5.6756926E-1,-3.533765E-1,5.596044E-1,-2.1901235E-1,-3.8979727E-1,-1.2623137E-1,-3.5850573E-2,7.390605E-1,6.989745E-1,-9.897751E-2,2.2959037E-1,-2.7415806E-1,-3.7405887E-1,-6.372624E-2],"split_indices":[4,5,5,4,15,21,15,5,15,11,4,4,0,8,7,0,15,8,0,8,4,14,3,3,18,5,16,17,0,12,0,5,11,21,11,5,2,20,0,0,0,0,0,14,0,0,0,0,4,0,11,0,0,0,0,0,0,0,0,0,0,0,0,0,0,0,0,0,0,0,0,0,0,0,0],"split_type":[0,0,0,0,0,0,0,0,0,0,0,0,0,0,0,0,0,0,0,0,0,0,0,0,0,0,0,0,0,0,0,0,0,0,0,0,0,0,0,0,0,0,0,0,0,0,0,0,0,0,0,0,0,0,0,0,0,0,0,0,0,0,0,0,0,0,0,0,0,0,0,0,0,0,0],"sum_hessian":[7.7630334E2,6.699576E2,1.0634574E2,1.4830809E2,5.2164954E2,7.076003E1,3.5585712E1,5.882956E1,8.947852E1,2.8324582E2,2.384037E2,6.952584E1,1.2341865E0,1.5427332E1,2.015838E1,5.0190254E1,8.639306E0,7.549108E1,1.3987448E1,1.7772287E2,1.0552295E2,2.3634673E2,2.0569775E0,2.0569775E0,6.7468864E1,2.8797686E0,1.2547564E1,1.8718496E1,1.4398843E0,3.9082575E0,4.7310486E0,6.4177704E1,1.1313376E1,9.914632E1,7.8576546E1,3.311734E1,7.240561E1,2.3531824E2,1.0284888E0,1.0284888E0,1.0284888E0,1.0284888E0,1.0284888E0,5.142444E0,6.232642E1,1.0284888E0,1.8512799E0,1.2341865E0,1.1313376E1,2.8797686E0,1.5838728E1,2.468373E0,1.4398843E0,6.170933E0,5.8006767E1,4.5253506E0,6.788026E0,3.8876877E1,6.0269444E1,7.590247E1,2.6740708E0,1.8512799E0,3.126606E1,5.6566883E1,1.5838728E1,2.3387836E2,1.4398843E0,1.6455821E0,3.496862E0,1.007919E1,1.2341865E0,1.0284888E0,1.8512799E0,1.3987448E1,1.8512799E0],"tree_param":{"num_deleted":"0","num_feature":"23","num_nodes":"75","size_leaf_vector":"1"}},{"base_weights":[-9.7256765E-2,2.3677713E-1,-1.1779143E0,-1.0971755E0,4.8630723E-1,-1.2209619E0,-9.0588087E-1,-1.1346977E0,1.5294382E-1,1.4603506E0,1.385185E-1,-4.5232277E-2,-3.6821792E-1,6.7368215E-1,-3.6670113E-1,4.4987374E-3,-1.1544026E0,3.4367E-1,-2.2853014E-1,1.6341428E0,5.560809E-1,-1.03023306E-1,1.682356E0,1.4695678E0,-2.3121734E-1,-8.945003E-1,-3.8427004E-1,1.8007541E0,6.732612E-1,-1.1587542E0,9.6020573E-1,-5.2461684E-1,4.8873213E-1,1.8623375E0,-5.772524E-1,6.00304E-1,5.943282E-2,-3.6568925E-1,1.9988779E-2,2.2796583E-1,5.621865E-1,4.0275452E-1,-9.354909E-2,-4.0140274E-1,-7.755157E-2,-2.4267736E-1,3.415945E-1,-7.55313E-2,-3.189504E-1,-3.2360378E-1,1.9010092E-1,5.7271886E-1,1.5375221E-1,-2.7991012E-1,8.545714E-2],"categories":[],"categories_nodes":[],"categories_segments":[],"categories_sizes":[],"default_left":[0,0,0,0,0,0,0,0,0,0,0,0,0,0,0,0,0,0,0,0,0,0,0,0,0,0,0,0,0,0,0,0,0,0,0,0,0,0,0,0,0,0,0,0,0,0,0,0,0,0,0,0,0,0,0],"id":1,"left_children":[1,3,5,7,9,11,13,15,17,19,21,-1,-1,23,-1,-1,25,-1,-1,27,29,31,33,35,-1,37,-1,39,41,43,45,47,49,51,53,-1,-1,-1,-1,-1,-1,-1,-1,-1,-1,-1,-1,-1,-1,-1,-1,-1,-1,-1,-1],"loss_changes":[2.66246E2,1.8815437E2,9.33197E-1,4.3544006E0,1.6088892E2,8.299103E-1,1.4652985E1,1.9803848E0,4.0310054E0,1.873761E1,1.312547E2,0E0,0E0,7.1821985E0,0E0,0E0,1.65551E0,0E0,0E0,1.5492401E1,1.6129293E1,7.6323814E1,2.0439117E1,2.1286516E0,0E0,9.8137455E0,0E0,5.3058777E0,1.1636978E1,3.9414644E-1,6.629675E0,2.5966347E1,2.961898E1,1.818039E0,1.5773646E0,0E0,0E0,0E0,0E0,0E0,0E0,0E0,0E0,0E0,0E0,0E0,0E0,0E0,0E0,0E0,0E0,0E0,0E0,0E0,0E0],"parents":[2147483647,0,0,1,1,2,2,3,3,4,4,5,5,6,6,7,7,8,8,9,9,10,10,13,13,16,16,19,19,20,20,21,21,22,22,23,23,25,25,27,27,28,28,29,29,30,30,31,31,32,32,33,33,34,34],"right_children":[2,4,6,8,10,12,14,16,18,20,22,-1,-1,24,-1,-1,26,-1,-1,28,30,32,34,36,-1,38,-1,40,42,44,46,48,50,52,54,-1,-1,-1,-1,-1,-1,-1,-1,-1,-1,-1,-1,-1,-1,-1,-1,-1,-1,-1,-1],"split_conditions":[3.459713E2,4.034518E0,5.91716E-3,5.7445866E1,2.1881838E-3,5.434092E-1,6.22084E-3,5.867956E-1,1.075517E2,9.929608E-1,9.217272E0,-4.5232277E-2,-3.6821792E-1,5.595794E1,-3.6670113E-1,4.4987374E-3,2.3201855E-3,3.4367E-1,-2.2853014E-1,2.1658273E0,9.9994904E-1,1.3049691E0,1.1845422E1,9.563198E-1,-2.3121734E-1,1.6750419E-3,-3.8427004E-1,1.2919897E-3,4.774114E0,3.918167E1,1.1848342E-3,1.1989079E2,4.209934E0,2.1429403E0,6.956987E-1,6.00304E-1,5.943282E-2,-3.6568925E-1,1.9988779E-2,2.2796583E-1,5.621865E-1,4.0275452E-1,-9.354909E-2,-4.0140274E-1,-7.755157E-2,-2.4267736E-1,3.415945E-1,-7.55313E-2,-3.189504E-1,-3.2360378E-1,1.9010092E-1,5.7271886E-1,1.5375221E-1,-2.7991012E-1,8.545714E-2],"split_indices":[15,4,5,19,5,13,5,13,0,13,4,0,0,1,0,0,5,0,0,8,13,11,4,14,0,5,0,5,3,0,5,15,4,8,7,0,0,0,0,0,0,0,0,0,0,0,0,0,0,0,0,0,0,0,0],"split_type":[0,0,0,0,0,0,0,0,0,0,0,0,0,0,0,0,0,0,0,0,0,0,0,0,0,0,0,0,0,0,0,0,0,0,0,0,0,0,0,0,0,0,0,0,0,0,0,0,0,0,0,0,0,0,0],"sum_hessian":[7.357995E2,5.626606E2,1.7313889E2,8.813049E1,4.7453012E2,1.4647223E2,2.6666645E1,8.5651985E1,2.4785013E0,1.2401247E2,3.5051764E2,1.0209559E0,1.4545128E2,4.262403E0,2.2404242E1,1.4473045E0,8.420468E1,1.0675931E0,1.4109082E0,1.0334365E2,2.066882E1,3.0390353E2,4.6614098E1,2.7369115E0,1.5254915E0,3.0208834E1,5.399585E1,8.73275E1,1.6016148E1,3.585794E0,1.7083025E1,1.7753381E2,1.2636973E2,4.333797E1,3.2761252E0,1.5254915E0,1.2114202E0,2.2384037E1,7.824797E0,6.4857206E0,8.084178E1,9.320876E0,6.6952715E0,2.584842E0,1.0009518E0,1.2414718E0,1.5841554E1,1.1880913E2,5.872469E1,1.0150959E1,1.16218765E2,4.1487553E1,1.8504215E0,2.2608387E0,1.0152866E0],"tree_param":{"num_deleted":"0","num_feature":"23","num_nodes":"55","size_leaf_vector":"1"}},{"base_weights":[-9.179171E-2,1.687494E-1,-1.0752428E0,-8.716008E-1,3.7485737E-1,-3.3681908E-1,-7.9070985E-1,-4.0847933E-1,-1.1716739E0,1.218706E0,1.3220507E-1,4.9024174E-1,-3.3857578E-1,-1.0619245E0,5.5053514E-1,-3.569208E-1,-4.5639142E-2,1.3810523E0,7.265489E-1,-1.6436592E-1,8.7780297E-1,-2.1546553E-1,1.0176826E0,-1.128814E0,-5.95557E-2,-4.4251126E-1,1.1719217E0,7.1022946E-1,1.4383345E0,9.030762E-1,-3.7250653E-1,1.3335267E-1,-8.050688E-1,1.3426441E0,-2.1723745E-2,-1.9749375E-1,5.2087164E-1,-1.0384292E-1,-3.4681335E-1,1.2127402E-1,-2.9739574E-1,4.4364986E-1,4.502129E-2,4.1731814E-1,-3.3588696E-1,4.583743E-1,2.4902824E-1,3.5397533E-1,-8.967619E-2,1.2632963E-1,-1.7683539E-1,-3.0288398E-1,-1.7662443E-2,2.0599608E-1,4.2921215E-1,2.1766382E-1,-2.1718791E-1],"categories":[],"categories_nodes":[],"categories_segments":[],"categories_sizes":[],"default_left":[0,0,0,0,0,0,0,0,0,0,0,0,0,0,0,0,0,0,0,0,0,0,0,0,0,0,0,0,0,0,0,0,0,0,0,0,0,0,0,0,0,0,0,0,0,0,0,0,0,0,0,0,0,0,0,0,0],"id":2,"left_children":[1,3,5,7,9,-1,11,13,15,17,19,21,-1,23,25,-1,-1,27,29,31,33,-1,35,37,-1,39,41,43,45,47,-1,49,51,53,55,-1,-1,-1,-1,-1,-1,-1,-1,-1,-1,-1,-1,-1,-1,-1,-1,-1,-1,-1,-1,-1,-1],"loss_changes":[1.7125835E2,1.1369259E2,1.0035095E0,1.1712372E1,9.033844E1,0E0,1.0681359E1,2.3161068E1,7.894287E-1,6.8736267E0,7.6296425E1,4.288433E0,0E0,1.0330849E0,9.933896E0,0E0,0E0,1.7844238E0,1.0350898E1,4.7265877E1,4.10738E1,0E0,6.3205633E0,2.5873184E-2,0E0,3.4672017E0,2.807454E0,1.1175616E1,2.344223E0,8.657274E0,0E0,3.5533035E1,1.1933647E1,2.757141E0,1.8591434E1,0E0,0E0,0E0,0E0,0E0,0E0,0E0,0E0,0E0,0E0,0E0,0E0,0E0,0E0,0E0,0E0,0E0,0E0,0E0,0E0,0E0,0E0],"parents":[2147483647,0,0,1,1,2,2,3,3,4,4,6,6,7,7,8,8,9,9,10,10,11,11,13,13,14,14,17,17,18,18,19,19,20,20,22,22,23,23,25,25,26,26,27,27,28,28,29,29,31,31,32,32,33,33,34,34],"right_children":[2,4,6,8,10,-1,12,14,16,18,20,22,-1,24,26,-1,-1,28,30,32,34,-1,36,38,-1,40,42,44,46,48,-1,50,52,54,56,-1,-1,-1,-1,-1,-1,-1,-1,-1,-1,-1,-1,-1,-1,-1,-1,-1,-1,-1,-1,-1,-1],"split_conditions":[3.459713E2,4.087563E0,5.91716E-3,2.3201855E-3,1.8621974E-3,-3.3681908E-1,6.22084E-3,1.5772871E-3,1.4093829E1,4.986664E0,5.3273263E0,4.040551E0,-3.3857578E-1,1.490313E-3,3.9280655E0,-3.569208E-1,-4.5639142E-2,1.2919897E-3,1.086354E0,4.249422E1,7.633588E-3,-2.1546553E-1,6.251092E2,6.750577E-1,-5.95557E-2,3.7995792E1,9.550425E-1,4.4550843E0,9.834619E-1,2.2752457E0,-3.7250653E-1,9.806564E-1,3.324676E0,5.5433292E0,3.961779E1,-1.9749375E-1,5.2087164E-1,-1.0384292E-1,-3.4681335E-1,1.2127402E-1,-2.9739574E-1,4.4364986E-1,4.502129E-2,4.1731814E-1,-3.3588696E-1,4.583743E-1,2.4902824E-1,3.5397533E-1,-8.967619E-2,1.2632963E-1,-1.7683539E-1,-3.0288398E-1,-1.7662443E-2,2.0599608E-1,4.2921215E-1,2.1766382E-1,-2.1718791E-1],"split_indices":[15,4,5,5,5,0,5,5,3,3,4,4,0,5,4,0,0,5,20,1,5,0,15,13,0,15,13,4,13,8,0,13,11,4,15,0,0,0,0,0,0,0,0,0,0,0,0,0,0,0,0,0,0,0,0,0,0],"split_type":[0,0,0,0,0,0,0,0,0,0,0,0,0,0,0,0,0,0,0,0,0,0,0,0,0,0,0,0,0,0,0,0,0,0,0,0,0,0,0,0,0,0,0,0,0,0,0,0,0,0,0,0,0,0,0,0,0],"sum_hessian":[6.666707E2,5.276984E2,1.3897227E2,8.67236E1,4.4097482E2,1.16571144E2,2.2401136E1,3.5026424E1,5.169718E1,9.75862E1,3.4338864E2,4.581367E0,1.781977E1,2.0768234E1,1.425819E1,5.063324E1,1.0639399E0,7.202231E1,2.5563887E1,2.4622792E2,9.716071E1,1.2821139E0,3.2992532E0,1.8989674E1,1.7785615E0,5.5986986E0,8.659492E0,6.7203383E0,6.530197E1,2.3956455E1,1.6074317E0,1.6865161E2,7.757631E1,6.3733208E1,3.3427505E1,1.0151974E0,2.2840557E0,1.0994807E0,1.7890192E1,2.3052807E0,3.293418E0,6.315448E0,2.3440442E0,5.0727305E0,1.6476077E0,5.5601173E1,9.700799E0,1.9486689E1,4.4697666E0,1.20927956E2,4.7723648E1,6.0609264E1,1.6967049E1,8.5844E0,5.5148808E1,1.6178402E1,1.7249104E1],"tree_param":{"num_deleted":"0","num_feature":"23","num_nodes":"57","size_leaf_vector":"1"}},{"base_weights":[-8.4302776E-2,1.2603675E-1,-9.992707E-1,-9.000106E-1,2.6998758E-1,-3.356205E-1,-8.305708E-1,-4.5459154E-1,-3.2119095E-1,9.491041E-1,7.422286E-2,2.6739252E-1,-9.154118E-1,-7.020629E-1,4.4890508E-1,1.614874E-1,1.0686187E0,3.078114E-1,-5.1891166E-1,-2.3458652E-1,4.9902385E-1,-7.248677E-1,-3.2859555E-1,-8.645099E-1,1.7028207E-1,-7.1689945E-1,4.7067523E-1,1.239647E0,5.5427414E-1,2.1257275E-3,8.1332976E-1,-9.037924E-1,-1.4258733E-1,-3.2684442E-1,8.3123016E-1,6.880643E-2,-3.1007853E-1,-3.064126E-1,2.0754026E-1,3.984142E-1,2.106527E-1,-3.523627E-2,3.3140692E-1,-4.6666615E-2,3.3089814E-1,3.578245E-1,-2.8747981E-2,-3.6726043E-2,-2.860701E-1,2.9201478E-1,-1.5173867E-1,-2.2262906E-1,5.461469E-1],"categories":[],"categories_nodes":[],"categories_segments":[],"categories_sizes":[],"default_left":[0,0,0,0,0,0,0,0,0,0,0,0,0,0,0,0,0,0,0,0,0,0,0,0,0,0,0,0,0,0,0,0,0,0,0,0,0,0,0,0,0,0,0,0,0,0,0,0,0,0,0,0,0],"id":3,"left_children":[1,3,5,7,9,-1,11,13,-1,15,17,19,21,23,-1,25,27,29,31,-1,-1,33,-1,35,-1,37,-1,39,41,43,45,47,49,-1,51,-1,-1,-1,-1,-1,-1,-1,-1,-1,-1,-1,-1,-1,-1,-1,-1,-1,-1],"loss_changes":[1.14417915E2,7.169316E1,1.3102036E0,4.054226E0,5.6432274E1,0E0,4.8975143E0,9.879352E0,0E0,8.771263E0,4.601785E1,7.6827636E0,8.031883E-1,3.9782047E0,0E0,1.805685E1,6.5542145E0,3.6791096E1,1.3470449E1,0E0,0E0,1.5420936E1,0E0,3.0830078E0,0E0,4.6180363E0,0E0,1.9642105E0,8.393365E0,2.6101284E1,3.1062859E1,1.6813049E0,2.0216082E1,0E0,9.792702E0,0E0,0E0,0E0,0E0,0E0,0E0,0E0,0E0,0E0,0E0,0E0,0E0,0E0,0E0,0E0,0E0,0E0,0E0],"parents":[2147483647,0,0,1,1,2,2,3,3,4,4,6,6,7,7,9,9,10,10,11,11,12,12,13,13,15,15,16,16,17,17,18,18,21,21,23,23,25,25,27,27,28,28,29,29,30,30,31,31,32,32,34,34],"right_children":[2,4,6,8,10,-1,12,14,-1,16,18,20,22,24,-1,26,28,30,32,-1,-1,34,-1,36,-1,38,-1,40,42,44,46,48,50,-1,52,-1,-1,-1,-1,-1,-1,-1,-1,-1,-1,-1,-1,-1,-1,-1,-1,-1,-1],"split_conditions":[3.459713E2,4.034518E0,3.5842294E-3,4.5509144E1,1.8903592E-3,-3.356205E-1,3.6764706E-3,1.945954E1,-3.2119095E-1,1.2919897E-3,1.1989079E2,1.4926631E2,6.773286E2,5.3452673E0,4.4890508E-1,2.520826E2,4.986664E0,5.376344E-3,1.3049691E0,-2.3458652E-1,4.9902385E-1,6.3129224E2,-3.2859555E-1,8.3423865E-1,1.7028207E-1,9.4713545E-1,4.7067523E-1,9.834619E-1,4.535527E0,5.382694E0,1.4742015E-2,9.730254E-1,2.9850747E-3,-3.2684442E-1,4.10282E0,6.880643E-2,-3.1007853E-1,-3.064126E-1,2.0754026E-1,3.984142E-1,2.106527E-1,-3.523627E-2,3.3140692E-1,-4.6666615E-2,3.3089814E-1,3.578245E-1,-2.8747981E-2,-3.6726043E-2,-2.860701E-1,2.9201478E-1,-1.5173867E-1,-2.2262906E-1,5.461469E-1],"split_indices":[15,4,5,15,5,0,5,19,0,5,15,21,15,11,0,15,3,5,11,0,0,15,0,13,0,17,0,13,4,4,5,8,5,0,4,0,0,0,0,0,0,0,0,0,0,0,0,0,0,0,0,0,0],"split_type":[0,0,0,0,0,0,0,0,0,0,0,0,0,0,0,0,0,0,0,0,0,0,0,0,0,0,0,0,0,0,0,0,0,0,0,0,0,0,0,0,0,0,0,0,0,0,0,0,0,0,0,0,0],"sum_hessian":[5.9286676E2,4.8275073E2,1.1011602E2,5.874908E1,4.2400165E2,6.116834E1,4.894768E1,1.728662E1,4.1462463E1,9.401416E1,3.299875E2,3.3566139E0,4.559107E1,1.5908777E1,1.3778412E0,1.2696135E1,8.131803E1,2.3709546E2,9.289202E1,2.1673493E0,1.1892645E0,2.4583323E1,2.1007744E1,1.4387133E1,1.5216447E0,8.119395E0,4.576739E0,5.9967613E1,2.1350416E1,1.4837666E2,8.8718796E1,4.5230988E1,4.7661034E1,2.0159546E1,4.4237766E0,1.8784448E0,1.2508688E1,6.902454E0,1.2169414E0,5.0234425E1,9.73319E0,9.969827E0,1.1380589E1,1.3053796E2,1.7838703E1,6.237563E1,2.6343166E1,2.9159112E0,4.2315075E1,1.1290529E1,3.6370506E1,1.8042028E0,2.6195738E0],"tree_param":{"num_deleted":"0","num_feature":"23","num_nodes":"53","size_leaf_vector":"1"}},{"base_weights":[-7.229398E-2,9.981469E-2,-9.4109935E-1,3.5254487E-1,-4.0141353E-1,-3.225148E-1,-7.6027703E-1,-3.0304197E-2,6.827609E-1,-6.7671436E-1,9.472676E-2,2.0464356E-1,-8.561904E-1,1.8664263E-1,-4.969763E-1,1.2967162E-1,8.5354674E-1,-7.159017E-1,4.074466E-1,7.275311E-1,-2.9116592E-1,-2.1712132E-1,3.2754293E-1,-6.613076E-1,-3.1287926E-1,-5.300094E-1,3.4066448E-1,2.3625022E-1,-7.533534E-1,9.150557E-1,-9.193026E-1,9.7029096E-1,-1.5491542E-1,-8.012257E-1,-3.0686624E-2,1.0140469E0,-2.6255536E-1,-5.7270026E-1,5.277257E-1,-3.1120777E-1,6.3537073E-1,1.9952565E-1,-2.2665527E-1,-1.682082E-1,1.518798E-1,2.1510975E-1,-8.9418806E-2,-9.042866E-2,-3.0119818E-1,-1.5660498E-1,3.4373823E-1,9.601322E-2,-3.053432E-1,3.890355E-1,1.8794848E-1,3.2841748E-1,-2.8604722E-1,-2.7519393E-1,-1.5166792E-1,2.9952326E-1,-3.2480323E-1,-1.2268499E-1,3.6615175E-1,-2.5728008E-1,1.7665355E-1,-2.90866E-2,-3.57905E-1,3.3402762E-1,-2.3345448E-1,-2.0340617E-1,4.019564E-1],"categories":[],"categories_nodes":[],"categories_segments":[],"categories_sizes":[],"default_left":[0,0,0,0,0,0,0,0,0,0,0,0,0,0,0,0,0,0,0,0,0,0,0,0,0,0,0,0,0,0,0,0,0,0,0,0,0,0,0,0,0,0,0,0,0,0,0,0,0,0,0,0,0,0,0,0,0,0,0,0,0,0,0,0,0,0,0,0,0,0,0],"id":4,"left_children":[1,3,5,7,9,-1,11,13,15,17,19,21,23,25,27,29,31,33,-1,35,37,-1,-1,39,-1,41,43,45,47,49,51,53,55,57,59,61,63,65,67,-1,69,-1,-1,-1,-1,-1,-1,-1,-1,-1,-1,-1,-1,-1,-1,-1,-1,-1,-1,-1,-1,-1,-1,-1,-1,-1,-1,-1,-1,-1,-1],"loss_changes":[7.921056E1,5.6198658E1,1.3039627E0,3.7280235E1,2.0388935E1,0E0,3.9405308E0,1.4007716E1,1.4840439E1,8.613392E0,1.3393522E1,4.4845896E0,6.6407394E-1,1.0617114E1,8.428541E0,3.2577988E1,1.4367363E1,5.510212E0,0E0,6.147998E0,8.197554E0,0E0,0E0,1.0867698E1,0E0,5.115665E0,1.1991389E1,3.3302593E0,3.4079056E0,8.068874E0,2.4002714E0,1.1351395E1,1.4407475E1,2.4243736E0,1.355545E1,5.2838764E0,3.264974E0,7.5466766E0,7.9659796E0,0E0,5.837106E0,0E0,0E0,0E0,0E0,0E0,0E0,0E0,0E0,0E0,0E0,0E0,0E0,0E0,0E0,0E0,0E0,0E0,0E0,0E0,0E0,0E0,0E0,0E0,0E0,0E0,0E0,0E0,0E0,0E0,0E0],"parents":[2147483647,0,0,1,1,2,2,3,3,4,4,6,6,7,7,8,8,9,9,10,10,11,11,12,12,13,13,14,14,15,15,16,16,17,17,19,19,20,20,23,23,25,25,26,26,27,27,28,28,29,29,30,30,31,31,32,32,33,33,34,34,35,35,36,36,37,37,38,38,40,40],"right_children":[2,4,6,8,10,-1,12,14,16,18,20,22,24,26,28,30,32,34,-1,36,38,-1,-1,40,-1,42,44,46,48,50,52,54,56,58,60,62,64,66,68,-1,70,-1,-1,-1,-1,-1,-1,-1,-1,-1,-1,-1,-1,-1,-1,-1,-1,-1,-1,-1,-1,-1,-1,-1,-1,-1,-1,-1,-1,-1,-1],"split_conditions":[3.459713E2,7.680911E1,3.5842294E-3,6E0,1.9289525E0,-3.225148E-1,3.6764706E-3,9.3857443E-1,4.3088984E0,3.327362E2,3.003003E-3,4.501492E1,6.773286E2,2.0128603E0,1.9723866E-3,2.3201855E-3,1.8869385E2,5.5433292E0,4.074466E-1,2.6152852E0,5.3273263E0,-2.1712132E-1,3.2754293E-1,6.3129224E2,-3.1287926E-1,1.6207455E-3,4.209934E0,3.659321E0,9.9962395E-1,1.2285012E-3,3.1765447E0,4.7885427E0,1.6750419E-3,7.987671E-1,5.7471264E-3,3.603609E-1,8.445417E-1,4.500907E0,5.988024E-3,-3.1120777E-1,4.10282E0,1.9952565E-1,-2.2665527E-1,-1.682082E-1,1.518798E-1,2.1510975E-1,-8.9418806E-2,-9.042866E-2,-3.0119818E-1,-1.5660498E-1,3.4373823E-1,9.601322E-2,-3.053432E-1,3.890355E-1,1.8794848E-1,3.2841748E-1,-2.8604722E-1,-2.7519393E-1,-1.5166792E-1,2.9952326E-1,-3.2480323E-1,-1.2268499E-1,3.6615175E-1,-2.5728008E-1,1.7665355E-1,-2.90866E-2,-3.57905E-1,3.3402762E-1,-2.3345448E-1,-2.0340617E-1,4.019564E-1],"split_indices":[15,0,5,6,11,0,5,20,4,15,5,1,15,3,5,5,15,4,0,8,4,0,0,15,0,5,4,19,14,5,19,4,5,11,5,17,13,4,5,0,4,0,0,0,0,0,0,0,0,0,0,0,0,0,0,0,0,0,0,0,0,0,0,0,0,0,0,0,0,0,0],"split_type":[0,0,0,0,0,0,0,0,0,0,0,0,0,0,0,0,0,0,0,0,0,0,0,0,0,0,0,0,0,0,0,0,0,0,0,0,0,0,0,0,0,0,0,0,0,0,0,0,0,0,0,0,0,0,0,0,0,0,0,0,0,0,0,0,0,0,0,0,0,0,0],"sum_hessian":[5.281058E2,4.4152554E2,8.6580246E1,2.9372144E2,1.478041E2,4.689555E1,3.9684696E1,1.3644118E2,1.5728026E2,9.482382E1,5.2980278E1,3.485524E0,3.6199173E1,9.3551125E1,4.2890053E1,3.7522625E1,1.1975764E2,9.366815E1,1.155667E0,1.9734095E1,3.324618E1,1.7932153E0,1.6923085E0,1.9935627E1,1.6263546E1,1.6117321E1,7.743381E1,1.11318865E1,3.1758165E1,2.1530245E1,1.5992379E1,1.0736627E2,1.2391361E1,8.314545E1,1.0522707E1,1.528628E1,4.4478154E0,2.4964163E1,8.28202E0,1.5608865E1,4.326763E0,2.2490525E0,1.3868268E1,1.1648107E1,6.57857E1,5.6794586E0,5.452428E0,1.2115535E1,1.9642632E1,2.8040202E0,1.8726225E1,1.011951E0,1.4980428E1,5.364709E1,5.371918E1,4.6866574E0,7.704704E0,5.8194145E1,2.4951302E1,5.3449774E0,5.1777296E0,1.812567E0,1.3473713E1,2.6137676E0,1.8340476E0,1.4782888E1,1.0181274E1,5.819408E0,2.4626122E0,1.5236813E0,2.803082E0],"tree_param":{"num_deleted":"0","num_feature":"23","num_nodes":"71","size_leaf_vector":"1"}},{"base_weights":[-6.7921035E-2,7.096824E-2,-8.927232E-1,-6.901514E-1,1.8185881E-1,-3.1253797E-1,-7.009282E-1,-2.5905395E-1,-1.0288094E0,7.6704663E-1,4.6873312E-2,1.4595567E-1,-7.717834E-1,-9.057269E-1,4.47015E-1,-3.1702948E-1,-4.0352512E-2,3.4621882E-1,9.928419E-1,-4.7201544E-2,8.189039E-1,-5.342664E-1,-3.039456E-1,-3.0165195E-1,-4.1992906E-2,-1.8762948E-1,7.5347626E-1,-1.9336718E-1,1.0209659E0,1.0267024E0,-4.6544395E-2,-3.2409438E-1,2.279044E-1,1.0545706E0,-8.242874E-1,-8.7003684E-1,5.0419015E-1,2.9521045E-1,-1.7332457E-1,-1.9749372E-1,2.876662E-1,3.4764355E-1,1.3127103E-2,3.3743137E-1,1.6414355E-1,-2.5741372E-5,-1.788125E-1,1.6018598E-1,-7.156689E-2,3.3720973E-1,3.23257E-2,2.6893932E-2,-3.335224E-1,1.0951818E-1,-2.9809326E-1,-1.8628144E-1,3.1707832E-1],"categories":[],"categories_nodes":[],"categories_segments":[],"categories_sizes":[],"default_left":[0,0,0,0,0,0,0,0,0,0,0,0,0,0,0,0,0,0,0,0,0,0,0,0,0,0,0,0,0,0,0,0,0,0,0,0,0,0,0,0,0,0,0,0,0,0,0,0,0,0,0,0,0,0,0,0,0],"id":5,"left_children":[1,3,5,7,9,-1,11,13,15,17,19,-1,21,23,25,-1,-1,27,29,31,33,35,-1,-1,-1,-1,37,39,41,43,-1,45,47,49,51,53,55,-1,-1,-1,-1,-1,-1,-1,-1,-1,-1,-1,-1,-1,-1,-1,-1,-1,-1,-1,-1],"loss_changes":[5.4756943E1,3.4692425E1,1.2392082E0,7.3675957E0,2.8264105E1,0E0,3.167221E0,1.1519308E1,5.81583E-1,6.030861E0,2.1259237E1,0E0,1.2759914E0,8.552742E-1,4.5158215E0,0E0,0E0,9.285466E0,1.8356209E0,1.998511E1,1.3179983E1,6.747277E0,0E0,0E0,0E0,0E0,3.645349E0,8.512243E0,1.4648218E0,1.3608017E0,0E0,1.1514953E1,1.8929485E1,1.7362747E0,1.2946925E0,2.5060215E0,3.7992287E0,0E0,0E0,0E0,0E0,0E0,0E0,0E0,0E0,0E0,0E0,0E0,0E0,0E0,0E0,0E0,0E0,0E0,0E0,0E0,0E0],"parents":[2147483647,0,0,1,1,2,2,3,3,4,4,6,6,7,7,8,8,9,9,10,10,12,12,13,13,14,14,17,17,18,18,19,19,20,20,21,21,26,26,27,27,28,28,29,29,31,31,32,32,33,33,34,34,35,35,36,36],"right_children":[2,4,6,8,10,-1,12,14,16,18,20,-1,22,24,26,-1,-1,28,30,32,34,36,-1,-1,-1,-1,38,40,42,44,-1,46,48,50,52,54,56,-1,-1,-1,-1,-1,-1,-1,-1,-1,-1,-1,-1,-1,-1,-1,-1,-1,-1,-1,-1],"split_conditions":[3.459713E2,4.087563E0,3.5842294E-3,2.3201855E-3,1.8621974E-3,-3.1253797E-1,3.6319613E-3,1.5772871E-3,1.3786331E1,3.49837E-1,9.217272E0,1.4595567E-1,6.773286E2,4.051625E0,3.8094985E0,-3.1702948E-1,-4.0352512E-2,4.543404E0,6.032492E2,1.0521206E0,1.1845422E1,6.3129224E2,-3.039456E-1,-3.0165195E-1,-4.1992906E-2,-1.8762948E-1,2.2301614E0,5.0689955E0,9E0,9.975287E-1,-4.6544395E-2,1.33887E-2,4.7885427E0,1.0000015E0,9.230769E-3,3.6764706E-3,4.10282E0,2.9521045E-1,-1.7332457E-1,-1.9749372E-1,2.876662E-1,3.4764355E-1,1.3127103E-2,3.3743137E-1,1.6414355E-1,-2.5741372E-5,-1.788125E-1,1.6018598E-1,-7.156689E-2,3.3720973E-1,3.23257E-2,2.6893932E-2,-3.335224E-1,1.0951818E-1,-2.9809326E-1,-1.8628144E-1,3.1707832E-1],"split_indices":[15,4,5,5,5,0,5,5,3,11,4,0,15,4,4,0,0,4,21,11,4,15,0,0,0,0,8,22,16,14,0,11,4,14,5,5,4,0,0,0,0,0,0,0,0,0,0,0,0,0,0,0,0,0,0,0,0],"split_type":[0,0,0,0,0,0,0,0,0,0,0,0,0,0,0,0,0,0,0,0,0,0,0,0,0,0,0,0,0,0,0,0,0,0,0,0,0,0,0,0,0,0,0,0,0,0,0,0,0,0,0,0,0,0,0,0,0],"sum_hessian":[4.76439E2,4.0855582E2,6.788318E1,5.129037E1,3.5726547E2,3.5702267E1,3.218091E1,2.3341965E1,2.7948404E1,6.60863E1,2.9117917E2,1.4817754E0,3.0699135E1,1.2035835E1,1.130613E1,2.6925074E1,1.0233301E0,2.3961391E1,4.2124916E1,2.6038867E2,3.0790485E1,1.709269E1,1.3606446E1,1.0371321E1,1.6645141E0,2.2814581E0,9.024672E0,1.3710619E1,1.02507715E1,4.1020645E1,1.1042701E0,1.2968413E2,1.3070454E2,2.7241697E1,3.548787E0,1.3038919E1,4.053769E0,7.9147067E0,1.1099651E0,1.00742445E1,3.636375E0,8.820681E0,1.4300905E0,3.2939182E1,8.081462E0,5.963408E1,7.005005E1,7.883532E1,5.186922E1,2.5205376E1,2.036322E0,1.013761E0,2.5350263E0,1.0084993E0,1.203042E1,1.2947817E0,2.7589877E0],"tree_param":{"num_deleted":"0","num_feature":"23","num_nodes":"57","size_leaf_vector":"1"}},{"base_weights":[-5.838946E-2,5.39382E-2,-8.461789E-1,2.2699665E-1,-3.5890585E-1,-3.0433735E-1,-6.412585E-1,-5.4669347E-2,4.338263E-1,-4.830495E-1,2.691117E-1,1.3456726E-1,-7.6413125E-1,1.9830455E-1,-4.1697243E-1,5.940083E-1,-1.0664087E-2,-1.0455137E-1,-6.8532544E-1,8.559948E-1,-6.4854336E-1,-5.309433E-1,3.388153E-1,-2.7748674E-1,-8.181659E-1,3.8736036E-1,-3.9516753E-1,-5.148773E-1,5.9407914E-1,-4.5264006E-2,7.22612E-1,7.96853E-1,-3.65994E-1,1.1117566E-1,-8.948397E-1,-4.083833E-1,-9.136504E-1,1.0293505E0,-8.6831704E-2,-1.430154E-1,-3.5340223E-1,-3.1167014E-2,-2.0320828E-1,-1.9233619E-1,7.092927E-2,-2.553072E-1,-6.714299E-2,1.7639032E-1,-1.17777735E-1,4.2274665E-2,-2.3697983E-1,-2.6711836E-1,-8.5932836E-2,3.0684608E-1,-1.2974845E-1,1.7779392E-1,-2.8866372E-1,-8.2204714E-2,2.3286782E-1,-7.264662E-2,2.958325E-1,1.7335428E-1,-2.3114029E-1,-1.9011644E-1,1.261404E-1,2.851632E-2,-3.286773E-1,-2.125906E-1,2.7301705E-1,-1.6260535E-1,-3.2318035E-1,5.1321104E-2,3.3306715E-1,-2.0022781E-1,1.9104826E-1],"categories":[],"categories_nodes":[],"categories_segments":[],"categories_sizes":[],"default_left":[0,0,0,0,0,0,0,0,0,0,0,0,0,0,0,0,0,0,0,0,0,0,0,0,0,0,0,0,0,0,0,0,0,0,0,0,0,0,0,0,0,0,0,0,0,0,0,0,0,0,0,0,0,0,0,0,0,0,0,0,0,0,0,0,0,0,0,0,0,0,0,0,0,0,0],"id":6,"left_children":[1,3,5,7,9,-1,11,13,15,17,19,21,23,25,27,29,31,33,35,37,39,41,-1,43,45,47,49,51,53,55,57,59,61,63,65,67,69,71,-1,73,-1,-1,-1,-1,-1,-1,-1,-1,-1,-1,-1,-1,-1,-1,-1,-1,-1,-1,-1,-1,-1,-1,-1,-1,-1,-1,-1,-1,-1,-1,-1,-1,-1,-1,-1],"loss_changes":[3.8477036E1,2.7305483E1,1.2204666E0,1.5701004E1,8.934996E0,0E0,2.6941519E0,1.0607041E1,1.1062048E1,7.1751556E0,1.0939728E1,3.623172E0,3.9398003E-1,7.815572E0,5.011156E0,9.418243E0,1.2376389E1,5.921044E0,3.5161514E0,2.7188253E0,1.9970131E0,1.4325821E-1,0E0,8.754355E-1,2.1463394E-1,8.413777E0,3.707807E0,3.5084658E0,2.4937825E0,1.2304431E1,5.294235E0,2.8313208E0,1.1872168E1,6.651491E0,1.581213E0,1.2363559E1,1.4168777E0,5.6032085E-1,0E0,2.5830932E0,0E0,0E0,0E0,0E0,0E0,0E0,0E0,0E0,0E0,0E0,0E0,0E0,0E0,0E0,0E0,0E0,0E0,0E0,0E0,0E0,0E0,0E0,0E0,0E0,0E0,0E0,0E0,0E0,0E0,0E0,0E0,0E0,0E0,0E0,0E0],"parents":[2147483647,0,0,1,1,2,2,3,3,4,4,6,6,7,7,8,8,9,9,10,10,11,11,12,12,13,13,14,14,15,15,16,16,17,17,18,18,19,19,20,20,21,21,23,23,24,24,25,25,26,26,27,27,28,28,29,29,30,30,31,31,32,32,33,33,34,34,35,35,36,36,37,37,39,39],"right_children":[2,4,6,8,10,-1,12,14,16,18,20,22,24,26,28,30,32,34,36,38,40,42,-1,44,46,48,50,52,54,56,58,60,62,64,66,68,70,72,-1,74,-1,-1,-1,-1,-1,-1,-1,-1,-1,-1,-1,-1,-1,-1,-1,-1,-1,-1,-1,-1,-1,-1,-1,-1,-1,-1,-1,-1,-1,-1,-1,-1,-1,-1,-1],"split_conditions":[3.459713E2,2.0066836E0,3.5842294E-3,5E0,5.2476945E0,-3.0433735E-1,3.6764706E-3,1.024361E0,1.1989079E2,9.288529E0,5.8139535E-3,2.0172462E2,1.101043E-1,1.2092077E0,1.945954E1,4.275289E0,1.7271157E-3,4.7802567E0,2.9542097E-3,7.773626E-1,2.1158452E-1,1.4402924E1,3.388153E-1,1.8568192E0,2.9819891E0,2.8628435E1,1.7577187E0,6.777605E0,1.082068E0,2.4660912E-3,1.7735016E1,1.2077295E-3,5.8768888E0,4.221164E0,2.5740026E-3,4.6852303E0,4.0803723E0,5.0430843E-3,-8.6831704E-2,1.1888756E-1,-3.5340223E-1,-3.1167014E-2,-2.0320828E-1,-1.9233619E-1,7.092927E-2,-2.553072E-1,-6.714299E-2,1.7639032E-1,-1.17777735E-1,4.2274665E-2,-2.3697983E-1,-2.6711836E-1,-8.5932836E-2,3.0684608E-1,-1.2974845E-1,1.7779392E-1,-2.8866372E-1,-8.2204714E-2,2.3286782E-1,-7.264662E-2,2.958325E-1,1.7335428E-1,-2.3114029E-1,-1.9011644E-1,1.261404E-1,2.851632E-2,-3.286773E-1,-2.125906E-1,2.7301705E-1,-1.6260535E-1,-3.2318035E-1,5.1321104E-2,3.3306715E-1,-2.0022781E-1,1.9104826E-1],"split_indices":[15,8,5,6,4,0,5,18,15,19,5,21,20,20,19,4,5,4,5,7,20,22,0,11,20,1,3,2,18,5,15,5,19,4,5,4,3,11,0,20,0,0,0,0,0,0,0,0,0,0,0,0,0,0,0,0,0,0,0,0,0,0,0,0,0,0,0,0,0,0,0,0,0,0,0],"split_type":[0,0,0,0,0,0,0,0,0,0,0,0,0,0,0,0,0,0,0,0,0,0,0,0,0,0,0,0,0,0,0,0,0,0,0,0,0,0,0,0,0,0,0,0,0,0,0,0,0,0,0,0,0,0,0,0,0,0,0,0,0,0,0,0,0,0,0,0,0,0,0,0,0,0,0],"sum_hessian":[4.332995E2,3.8004236E2,5.325715E1,2.6810617E2,1.11936195E2,2.7073845E1,2.6183302E1,1.1382797E2,1.542782E2,9.3653946E1,1.8282251E1,3.5668483E0,2.2616455E1,6.729363E1,4.6534336E1,1.1316154E2,4.1116665E1,3.3146736E1,6.0507206E1,1.1191779E1,7.090471E0,2.4165325E0,1.150316E0,2.8734112E0,1.9743044E1,5.1299133E1,1.5994496E1,4.2873447E1,3.660889E0,1.9060799E1,9.410074E1,1.2184284E1,2.893238E1,2.6713898E1,6.432838E0,2.8602722E1,3.1904486E1,9.808636E0,1.3831437E0,4.276969E0,2.8135023E0,1.0534635E0,1.3630689E0,1.5377944E0,1.335617E0,1.8299538E1,1.4435048E0,4.099992E1,1.0299213E1,7.055844E0,8.938653E0,1.5120111E1,2.7753338E1,2.5849571E0,1.075932E0,1.1449317E1,7.6114826E0,4.5939107E0,8.950683E1,1.8343296E0,1.0349955E1,8.550677E0,2.0381702E1,7.529933E0,1.9183966E1,1.1733947E0,5.2594433E0,2.3673916E1,4.9288063E0,1.1071021E1,2.0833464E1,1.1129172E0,8.695719E0,2.6434896E0,1.6334791E0],"tree_param":{"num_deleted":"0","num_feature":"23","num_nodes":"75","size_leaf_vector":"1"}},{"base_weights":[-5.534777E-2,-7.3756975E-1,5.145812E-2,-2.3425561E-1,-9.1896707E-1,5.5867255E-1,-4.4587083E-2,1.5575403E-1,-2.6786092E-1,-9.432701E-1,-4.6388052E-2,6.273231E-1,-2.167048E-1,8.099974E-2,-6.2489617E-1,-7.040725E-1,6.412221E-1,-5.380432E-2,-2.8773993E-1,2.0586123E-1,8.012938E-1,2.313775E-1,-3.247451E-1,-6.9070965E-1,2.0623025E-1,-2.3672579E-1,-6.6749126E-2,9.449126E-1,-3.7286725E-2,7.070644E-1,-1.0922838E0,8.9527696E-1,-1.0334429E-1,-9.2947384E-4,5.3650993E-1,-4.844928E-1,2.1268965E-1,-3.658428E-1,-9.0403E-1,3.1725737E-1,8.70053E-2,6.745445E-2,3.2739857E-1,-4.2129436E-1,-8.0340154E-2,2.9963607E-1,2.6132802E-2,-3.1505388E-1,1.7517805E-1,-1.6795805E-1,4.8174772E-2,2.3739326E-1,5.50866E-2,-4.0861398E-2,-2.149239E-1,2.1216092E-1,-2.4524991E-1,-2.0190886E-1,3.843278E-2,-2.8876242E-1,7.5620964E-2],"categories":[],"categories_nodes":[],"categories_segments":[],"categories_sizes":[],"default_left":[0,0,0,0,0,0,0,0,0,0,0,0,0,0,0,0,0,0,0,0,0,0,0,0,0,0,0,0,0,0,0,0,0,0,0,0,0,0,0,0,0,0,0,0,0,0,0,0,0,0,0,0,0,0,0,0,0,0,0,0,0],"id":7,"left_children":[1,3,5,7,9,11,13,15,-1,17,-1,19,-1,21,23,25,27,-1,-1,29,31,33,35,37,-1,-1,-1,39,-1,41,43,45,47,49,51,53,55,57,59,-1,-1,-1,-1,-1,-1,-1,-1,-1,-1,-1,-1,-1,-1,-1,-1,-1,-1,-1,-1,-1,-1],"loss_changes":[2.930887E1,4.755331E0,1.6991058E1,4.188644E0,5.911789E-1,5.3359203E0,2.1458717E1,4.9400816E0,0E0,2.9159927E-1,0E0,3.7382088E0,0E0,1.486347E1,4.9984627E0,2.812624E-3,1.8368924E0,0E0,0E0,1.1767491E1,3.2666893E0,1.2576639E1,5.765497E0,3.1601791E0,0E0,0E0,0E0,9.240246E-2,0E0,2.1262493E0,9.360137E-1,2.7508507E0,3.483042E0,9.273258E0,6.7503777E0,4.0338316E0,8.63104E0,3.3707163E0,2.2535229E0,0E0,0E0,0E0,0E0,0E0,0E0,0E0,0E0,0E0,0E0,0E0,0E0,0E0,0E0,0E0,0E0,0E0,0E0,0E0,0E0,0E0,0E0],"parents":[2147483647,0,0,1,1,2,2,3,3,4,4,5,5,6,6,7,7,9,9,11,11,13,13,14,14,15,15,16,16,19,19,20,20,21,21,22,22,23,23,27,27,29,29,30,30,31,31,32,32,33,33,34,34,35,35,36,36,37,37,38,38],"right_children":[2,4,6,8,10,12,14,16,-1,18,-1,20,-1,22,24,26,28,-1,-1,30,32,34,36,38,-1,-1,-1,40,-1,42,44,46,48,50,52,54,56,58,60,-1,-1,-1,-1,-1,-1,-1,-1,-1,-1,-1,-1,-1,-1,-1,-1,-1,-1,-1,-1,-1,-1],"split_conditions":[4.087563E0,4.7121265E1,1.8621974E-3,2.4660912E-3,4.075214E0,3.459713E2,1.8869385E2,1.6750419E-3,-2.6786092E-1,8.178607E0,-4.6388052E-2,1.3586957E-3,-2.167048E-1,1.4429658E1,5.221953E0,4.1693798E-1,9.550425E-1,-5.380432E-2,-2.8773993E-1,4.4550843E0,2.0526721E0,1.1636269E0,5.3273263E0,3.8852295E-1,2.0623025E-1,-2.3672579E-1,-6.6749126E-2,8E0,-3.7286725E-2,6.440511E0,1.3280213E-3,1.0261702E2,2.2727704E-1,2.6281208E-3,4.7642164E0,3.9759674E0,6.4102565E-3,1.4162991E0,2.406059E1,3.1725737E-1,8.70053E-2,6.745445E-2,3.2739857E-1,-4.2129436E-1,-8.0340154E-2,2.9963607E-1,2.6132802E-2,-3.1505388E-1,1.7517805E-1,-1.6795805E-1,4.8174772E-2,2.3739326E-1,5.50866E-2,-4.0861398E-2,-2.149239E-1,2.1216092E-1,-2.4524991E-1,-2.0190886E-1,3.843278E-2,-2.8876242E-1,7.5620964E-2],"split_indices":[4,15,5,5,4,15,15,5,0,0,0,5,0,2,4,11,13,0,0,4,20,11,4,20,0,0,0,16,0,19,5,0,22,5,4,3,5,11,19,0,0,0,0,0,0,0,0,0,0,0,0,0,0,0,0,0,0,0,0,0,0],"split_type":[0,0,0,0,0,0,0,0,0,0,0,0,0,0,0,0,0,0,0,0,0,0,0,0,0,0,0,0,0,0,0,0,0,0,0,0,0,0,0,0,0,0,0,0,0,0,0,0,0,0,0,0,0,0,0,0,0,0,0,0,0],"sum_hessian":[4.0071255E2,5.3442593E1,3.4726996E2,1.4765337E1,3.8677254E1,5.4522106E1,2.9274783E2,9.753278E0,5.012059E0,3.7258484E1,1.4187708E0,5.22332E1,2.2889063E0,2.4137206E2,5.1375793E1,3.357109E0,6.3961687E0,1.0082796E0,3.6250206E1,1.589916E1,3.633404E1,1.7641763E2,6.495442E1,4.937339E1,2.0024023E0,2.3106537E0,1.0464554E0,4.411644E0,1.9845248E0,1.1798993E1,4.1001673E0,3.2923912E1,3.4101284E0,1.0072753E2,7.56901E1,5.0147137E1,1.4807285E1,2.0646189E1,2.8727203E1,3.2397542E0,1.1718898E0,5.9355545E0,5.863438E0,2.46428E0,1.6358876E0,2.8976713E1,3.9471974E0,1.2121451E0,2.1979833E0,2.2028624E1,7.8698906E1,4.323216E1,3.245794E1,2.0679222E1,2.9467916E1,1.0216611E1,4.590675E0,1.2506136E1,8.140053E0,2.750269E1,1.2245144E0],"tree_param":{"num_deleted":"0","num_feature":"23","num_nodes":"61","size_leaf_vector":"1"}},{"base_weights":[-4.9390815E-2,-7.566893E-1,2.674033E-2,-2.4118389E-1,-9.2905176E-1,-7.044884E-2,3.8487637E-1,-4.716326E-1,2.553527E-1,-2.9791015E-1,-5.830563E-1,-2.2521364E-3,-1.0901563E0,7.575941E-1,-9.649351E-2,-6.4825493E-1,1.3537908E-1,1.1493962E-2,-2.2213493E-1,-1.3828622E-1,1.1585182E0,2.4285348E-2,-1.2034391E0,1.6520499E-1,9.2455095E-1,1.1425026E-1,-8.265028E-1,-2.7628917E-1,4.7127962E-2,1.0576817E-2,-7.9112774E-1,1.3868336E-1,1.4623404E0,-9.603474E-2,-3.7614498E-1,5.1770335E-1,-4.1917142E-1,-2.2295289E-2,9.809886E-1,8.524105E-1,-2.9379192E-1,-1.1143699E0,2.067807E-2,1.66877E-1,-1.3655244E-1,6.6500425E-2,-2.1696562E-1,-5.9786912E-2,-2.743922E-1,2.793114E-1,-1.9936378E-1,-1.1287447E-1,4.7718814E-1,2.7106056E-1,-1.12217695E-1,3.1048855E-1,-1.9114826E-2,-2.0561987E-1,3.5567155E-1,-2.5240612E-1,1.41793E-1,-9.7027995E-2,-3.6835018E-1],"categories":[],"categories_nodes":[],"categories_segments":[],"categories_sizes":[],"default_left":[0,0,0,0,0,0,0,0,0,0,0,0,0,0,0,0,0,0,0,0,0,0,0,0,0,0,0,0,0,0,0,0,0,0,0,0,0,0,0,0,0,0,0,0,0,0,0,0,0,0,0,0,0,0,0,0,0,0,0,0,0,0,0],"id":8,"left_children":[1,3,5,7,9,11,13,15,-1,-1,17,19,21,23,25,27,-1,-1,-1,29,31,-1,33,35,37,39,41,-1,43,45,47,49,51,-1,-1,53,-1,-1,55,57,59,61,-1,-1,-1,-1,-1,-1,-1,-1,-1,-1,-1,-1,-1,-1,-1,-1,-1,-1,-1,-1,-1],"loss_changes":[1.9945442E1,2.973999E0,1.1688769E1,3.0117729E0,1.0374069E-2,1.8381987E1,1.2931538E1,1.7932198E0,0E0,0E0,6.7159843E-1,3.944669E1,2.2957382E0,3.8534355E0,5.0424957E0,1.5866637E0,0E0,0E0,0E0,2.1738098E1,7.9169426E0,0E0,2.737713E-1,6.299E0,1.8420467E0,8.032337E0,1.9652987E0,0E0,1.082743E0,2.8516367E1,2.8536034E0,5.1500564E0,5.336029E0,0E0,0E0,3.4310632E0,0E0,0E0,1.7448044E0,5.6561923E0,7.6925383E0,1.05658054E-1,0E0,0E0,0E0,0E0,0E0,0E0,0E0,0E0,0E0,0E0,0E0,0E0,0E0,0E0,0E0,0E0,0E0,0E0,0E0,0E0,0E0],"parents":[2147483647,0,0,1,1,2,2,3,3,4,4,5,5,6,6,7,7,10,10,11,11,12,12,13,13,14,14,15,15,19,19,20,20,22,22,23,23,24,24,25,25,26,26,28,28,29,29,30,30,31,31,32,32,35,35,38,38,39,39,40,40,41,41],"right_children":[2,4,6,8,10,12,14,16,-1,-1,18,20,22,24,26,28,-1,-1,-1,30,32,-1,34,36,38,40,42,-1,44,46,48,50,52,-1,-1,54,-1,-1,56,58,60,62,-1,-1,-1,-1,-1,-1,-1,-1,-1,-1,-1,-1,-1,-1,-1,-1,-1,-1,-1,-1,-1],"split_conditions":[4.034518E0,4.5509144E1,5.3273263E0,1.945954E1,3.9562323E0,1.5850144E-2,6.4102565E-3,5.3452673E0,2.553527E-1,-2.9791015E-1,7.209558E1,5.91716E-3,6.0408752E-2,5.5433292E0,3.670701E1,3.9522934E0,1.3537908E-1,1.1493962E-2,-2.2213493E-1,4.032258E-3,4.2801175E0,2.4285348E-2,1.6051365E-2,3.2051282E-3,6.39661E-1,9.818703E-1,9.217272E0,-2.7628917E-1,3.9774365E0,4.7885427E0,3.494209E1,6.22084E-3,8.55895E-1,-9.603474E-2,-3.7614498E-1,7.3673515E0,-4.1917142E-1,-2.2295289E-2,1.0003213E0,8.993089E-1,9.620914E-1,4.583053E-1,2.067807E-2,1.66877E-1,-1.3655244E-1,6.6500425E-2,-2.1696562E-1,-5.9786912E-2,-2.743922E-1,2.793114E-1,-1.9936378E-1,-1.1287447E-1,4.7718814E-1,2.7106056E-1,-1.12217695E-1,3.1048855E-1,-1.9114826E-2,-2.0561987E-1,3.5567155E-1,-2.5240612E-1,1.41793E-1,-9.7027995E-2,-3.6835018E-1],"split_indices":[4,15,4,19,4,5,5,11,0,0,15,5,20,4,1,4,0,0,0,5,4,0,5,5,3,14,4,0,4,4,15,5,14,0,0,3,0,0,14,8,12,17,0,0,0,0,0,0,0,0,0,0,0,0,0,0,0,0,0,0,0,0,0],"split_type":[0,0,0,0,0,0,0,0,0,0,0,0,0,0,0,0,0,0,0,0,0,0,0,0,0,0,0,0,0,0,0,0,0,0,0,0,0,0,0,0,0,0,0,0,0,0,0,0,0,0,0,0,0,0,0,0,0,0,0,0,0,0,0],"sum_hessian":[3.6903073E2,3.4992516E1,3.340382E2,9.369449E0,2.5623066E1,2.6336957E2,7.066863E1,8.20643E0,1.1630182E0,2.0046045E1,5.5770216E0,2.4779929E2,1.5570284E1,3.950593E1,3.11627E1,7.1379642E0,1.0684658E0,1.2800645E0,4.296957E0,2.2259375E2,2.5205547E1,1.3984663E0,1.4171818E1,9.123571E0,3.0382359E1,2.4836294E1,6.326406E0,4.894202E0,2.2437618E0,1.8206296E2,4.0530785E1,6.1197944E0,1.9085754E1,1.1614342E0,1.3010384E1,7.9896965E0,1.1338753E0,1.6079028E0,2.8774456E1,8.453906E0,1.638239E1,4.602321E0,1.724085E0,1.0609653E0,1.1827964E0,1.4193141E2,4.013155E1,7.4493117E0,3.3081474E1,3.0006502E0,3.1191442E0,1.1187736E0,1.796698E1,5.567603E0,2.4220932E0,2.7369764E1,1.4046929E0,1.3171104E0,7.1367955E0,9.498592E0,6.8837967E0,1.0604608E0,3.5418603E0],"tree_param":{"num_deleted":"0","num_feature":"23","num_nodes":"63","size_leaf_vector":"1"}},{"base_weights":[-4.4936635E-2,2.2679737E-2,-6.851645E-1,-1.09708995E-1,2.689687E-1,-2.8988183E-1,-3.8389346E-1,4.8284255E-2,-4.4593373E-1,7.308678E-1,-4.149702E-2,1.1897197E-3,-2.7508563E-1,2.7491745E-1,-1.7593004E-1,-4.8925465E-1,3.45953E-1,-5.4976577E-1,8.646374E-1,-8.917118E-1,1.766286E-1,-2.4474953E-1,5.2634877E-1,4.5639214E-1,-5.172142E-1,2.8302258E-1,-4.1629723E-1,-6.6791636E-1,-1.290955E-1,1.320927E-1,-3.907298E-1,9.670691E-1,-4.928925E-1,-4.0579653E-1,7.1775544E-1,3.1284612E-1,-2.8633037E-1,9.696545E-1,-1.3632937E-1,7.77424E-2,3.1998974E-1,3.299044E-2,-2.4582402E-1,-9.340594E-2,2.6375568E-1,-2.3797306E-1,1.8305926E-2,-2.1470651E-1,1.6465718E-1,1.2848099E-1,-1.4926931E-1,-4.1343853E-2,3.0659848E-1,3.4292072E-2,-2.382764E-1,-4.6148024E-2,3.3006796E-1,1.7064926E-1,-9.792581E-2,2.2561645E-2,4.6889567E-1],"categories":[],"categories_nodes":[],"categories_segments":[],"categories_sizes":[],"default_left":[0,0,0,0,0,0,0,0,0,0,0,0,0,0,0,0,0,0,0,0,0,0,0,0,0,0,0,0,0,0,0,0,0,0,0,0,0,0,0,0,0,0,0,0,0,0,0,0,0,0,0,0,0,0,0,0,0,0,0,0,0],"id":9,"left_children":[1,3,5,7,9,-1,11,13,15,17,19,21,-1,23,25,27,-1,29,31,33,35,-1,37,39,41,43,45,47,49,-1,-1,51,53,-1,55,57,-1,59,-1,-1,-1,-1,-1,-1,-1,-1,-1,-1,-1,-1,-1,-1,-1,-1,-1,-1,-1,-1,-1,-1,-1],"loss_changes":[1.48883505E1,1.0193169E1,2.411169E0,1.0828814E1,1.5699618E1,0E0,3.5966034E0,7.127307E0,5.076479E0,8.008781E0,1.245148E1,5.22128E0,0E0,1.0251441E1,7.910445E0,4.0396795E0,0E0,4.1283326E0,6.0673485E0,1.1134688E1,8.555418E0,0E0,3.660742E0,6.610735E0,2.64031E0,9.087994E0,8.462237E0,2.8701859E0,4.8340445E0,0E0,0E0,2.4300537E0,7.2817016E-1,0E0,1.4038094E0,8.136055E0,0E0,2.7587686E0,0E0,0E0,0E0,0E0,0E0,0E0,0E0,0E0,0E0,0E0,0E0,0E0,0E0,0E0,0E0,0E0,0E0,0E0,0E0,0E0,0E0,0E0,0E0],"parents":[2147483647,0,0,1,1,2,2,3,3,4,4,6,6,7,7,8,8,9,9,10,10,11,11,13,13,14,14,15,15,17,17,18,18,19,19,20,20,22,22,23,23,24,24,25,25,26,26,27,27,28,28,31,31,32,32,34,34,35,35,37,37],"right_children":[2,4,6,8,10,-1,12,14,16,18,20,22,-1,24,26,28,-1,30,32,34,36,-1,38,40,42,44,46,48,50,-1,-1,52,54,-1,56,58,-1,60,-1,-1,-1,-1,-1,-1,-1,-1,-1,-1,-1,-1,-1,-1,-1,-1,-1,-1,-1,-1,-1,-1,-1],"split_conditions":[3.459713E2,1.9289525E0,3.5842294E-3,1.9049485E0,2.9850747E-3,-2.8988183E-1,6.773286E2,1.33887E-2,3.327362E2,1.0074458E0,3.5842294E-3,5.0075754E2,-2.7508563E-1,1.1630547E0,8.6545426E-1,7.987671E-1,3.45953E-1,2.5514832E0,2.7256763E0,5.1382976E0,2.1513307E2,-2.4474953E-1,1.6805548E1,1.2718396E1,1.8903592E-3,7.26317E-1,7.987671E-1,1.5E1,2.8368793E-3,1.320927E-1,-3.907298E-1,1.2919897E-3,1.7094017E-3,-4.0579653E-1,6E0,2.4838756E2,-2.8633037E-1,6.5077043E0,-1.3632937E-1,7.77424E-2,3.1998974E-1,3.299044E-2,-2.4582402E-1,-9.340594E-2,2.6375568E-1,-2.3797306E-1,1.8305926E-2,-2.1470651E-1,1.6465718E-1,1.2848099E-1,-1.4926931E-1,-4.1343853E-2,3.0659848E-1,3.4292072E-2,-2.382764E-1,-4.6148024E-2,3.3006796E-1,1.7064926E-1,-9.792581E-2,2.2561645E-2,4.6889567E-1],"split_indices":[15,11,5,8,5,0,15,11,15,18,5,15,0,20,13,11,0,3,8,4,15,0,22,19,5,12,11,16,5,0,0,5,5,0,6,21,0,9,0,0,0,0,0,0,0,0,0,0,0,0,0,0,0,0,0,0,0,0,0,0,0],"split_type":[0,0,0,0,0,0,0,0,0,0,0,0,0,0,0,0,0,0,0,0,0,0,0,0,0,0,0,0,0,0,0,0,0,0,0,0,0,0,0,0,0,0,0,0,0,0,0,0,0,0,0,0,0,0,0,0,0,0,0,0,0],"sum_hessian":[3.4256317E2,3.1071246E2,3.185069E1,2.0244559E2,1.0826687E2,1.5334836E1,1.6515854E1,1.3830974E2,6.4135864E1,4.2975483E1,6.529139E1,1.0168132E1,6.3477225E0,6.867137E1,6.963836E1,6.311995E1,1.0159138E0,3.770366E0,3.9205116E1,1.2700202E1,5.2591187E1,3.7619488E0,6.4061837E0,5.621626E1,1.2455112E1,2.3874802E1,4.576356E1,4.1619526E1,2.1500423E1,1.8076046E0,1.9627614E0,3.672191E1,2.483207E0,9.996747E0,2.7034547E0,4.7583908E1,5.0072765E0,4.4198055E0,1.9863778E0,4.356061E1,1.2655647E1,4.2567616E0,8.198351E0,1.219455E1,1.1680253E1,2.5200424E1,2.0563135E1,4.044348E1,1.1760443E0,8.4922695E0,1.3008153E1,1.6675978E0,3.5054314E1,1.0295392E0,1.4536678E0,1.0068452E0,1.6966096E0,3.4056606E1,1.3527302E1,2.211983E0,2.2078226E0],"tree_param":{"num_deleted":"0","num_feature":"23","num_nodes":"61","size_leaf_vector":"1"}},{"base_weights":[-4.022969E-2,-8.473568E-1,9.915214E-3,-9.101579E-1,3.3483803E-2,4.247271E-2,-7.812971E-1,-2.9332548E-1,-7.397818E-2,-2.601602E-2,4.2165655E-1,-8.839046E-1,-3.311017E-2,4.491892E-2,-5.0501585E-1,5.0209975E-1,-2.7046698E-1,-4.4481102E-2,-2.9577097E-1,1.0393899E-1,-4.2422795E-1,-2.5141966E-1,-9.05205E-1,-1.02378435E-1,6.7443556E-1,-6.960239E-3,1.9061582E-1,-3.2521296E-1,7.037211E-2,-1.4052087E-1,1.3195878E-1,-2.8803533E-1,-5.0886072E-2,-2.2137332E-1,1.1998745E-1,2.5557137E-1,6.0793784E-2],"categories":[],"categories_nodes":[],"categories_segments":[],"categories_sizes":[],"default_left":[0,0,0,0,0,0,0,0,0,0,0,0,0,0,0,0,0,0,0,0,0,0,0,0,0,0,0,0,0,0,0,0,0,0,0,0,0],"id":10,"left_children":[1,3,5,7,-1,9,11,-1,-1,13,15,17,-1,19,21,23,-1,-1,-1,25,27,29,31,33,35,-1,-1,-1,-1,-1,-1,-1,-1,-1,-1,-1,-1],"loss_changes":[1.2951942E1,1.2288694E0,7.8148947E0,5.5174637E-1,0E0,7.570668E0,7.2792006E-1,0E0,0E0,8.432303E0,5.1992364E0,6.2348175E-1,0E0,6.0386844E0,3.020649E0,4.515065E0,0E0,0E0,0E0,1.3062632E1,1.0855974E1,3.3523843E0,3.2309055E-1,3.5950875E0,2.61907E0,0E0,0E0,0E0,0E0,0E0,0E0,0E0,0E0,0E0,0E0,0E0,0E0],"parents":[2147483647,0,0,1,1,2,2,3,3,5,5,6,6,9,9,10,10,11,11,13,13,14,14,15,15,19,19,20,20,21,21,22,22,23,23,24,24],"right_children":[2,4,6,8,-1,10,12,-1,-1,14,16,18,-1,20,22,24,-1,-1,-1,26,28,30,32,34,36,-1,-1,-1,-1,-1,-1,-1,-1,-1,-1,-1,-1],"split_conditions":[3.9464002E0,4.7031155E1,1.941388E2,5.5183277E0,3.3483803E-2,1.1E1,5.3273263E0,-2.9332548E-1,-7.397818E-2,4.263612E1,9.099661E-1,1.5772871E-3,-3.311017E-2,1.6051365E-2,3.7999615E-1,5.444745E-1,-2.7046698E-1,-4.4481102E-2,-2.9577097E-1,5.4644807E-3,6.8670077E0,4.917814E0,2.8618176E0,1.2173476E0,3.984064E-3,-6.960239E-3,1.9061582E-1,-3.2521296E-1,7.037211E-2,-1.4052087E-1,1.3195878E-1,-2.8803533E-1,-5.0886072E-2,-2.2137332E-1,1.1998745E-1,2.5557137E-1,6.0793784E-2],"split_indices":[4,19,0,11,0,6,4,0,0,1,13,5,0,5,20,12,0,0,0,5,4,4,8,11,5,0,0,0,0,0,0,0,0,0,0,0,0],"split_type":[0,0,0,0,0,0,0,0,0,0,0,0,0,0,0,0,0,0,0,0,0,0,0,0,0,0,0,0,0,0,0,0,0,0,0,0,0],"sum_hessian":[3.1880438E2,1.7718067E1,3.010863E2,1.6676832E1,1.0412347E0,2.9009552E2,1.0990784E1,1.4705389E1,1.9714422E0,2.4650316E2,4.359236E1,9.257563E0,1.7332217E0,2.1549657E2,3.1006596E1,4.1679077E1,1.9132856E0,1.426075E0,7.8314877E0,1.9210735E2,2.3389221E1,1.9976147E1,1.103045E1,9.336539E0,3.2342537E1,1.5579286E2,3.631448E1,1.13631315E1,1.2026091E1,1.5449266E1,4.52688E0,9.980167E0,1.050282E0,3.914783E0,5.4217567E0,2.2916538E1,9.425999E0],"tree_param":{"num_deleted":"0","num_feature":"23","num_nodes":"37","size_leaf_vector":"1"}},{"base_weights":[-3.7568618E-2,-5.9332633E-1,1.6655901E-2,-2.2858569E-1,-9.103491E-1,3.5005662E-1,-6.1679874E-2,-2.6157495E-1,2.3505141E-1,-2.8649798E-1,-1.02211155E-1,1.7651975E-2,6.467699E-1,-7.510419E-1,3.8490918E-2,4.981029E-1,-1.7258002E-1,3.526709E-1,-6.3067186E-1,1.8601562E-1,8.232101E-1,-8.772924E-1,2.6467758E-1,5.531329E-1,-5.7372216E-2,-1.1501513E-1,7.207123E-1,5.1959455E-1,-2.2416396E-1,-4.594115E-2,-3.5147732E-1,7.697395E-1,-3.2493666E-1,7.7927954E-2,9.255235E-1,-1.0042735E0,1.5549213E-1,-6.839448E-2,9.800027E-1,-4.9867767E-1,6.532492E-2,2.782342E-1,-3.2616977E-2,5.8428183E-2,2.9390112E-1,-2.2659405E-1,1.5007304E-1,3.0921674E-3,3.2234553E-1,-1.339867E-1,1.5231085E-1,2.993621E-1,3.3884984E-2,-3.217956E-1,8.561193E-2,2.4106435E-1,-1.6082488E-1,-1.9442262E-1,1.5361087E-1,3.7904397E-1,-4.811974E-2,-2.0302449E-1,2.2907634E-1,2.3335747E-1,-1.8363833E-2],"categories":[],"categories_nodes":[],"categories_segments":[],"categories_sizes":[],"default_left":[0,0,0,0,0,0,0,0,0,0,0,0,0,0,0,0,0,0,0,0,0,0,0,0,0,0,0,0,0,0,0,0,0,0,0,0,0,0,0,0,0,0,0,0,0,0,0,0,0,0,0,0,0,0,0,0,0,0,0,0,0,0,0,0,0],"id":11,"left_children":[1,3,5,7,9,11,13,-1,15,-1,-1,17,19,21,23,25,-1,27,29,31,33,35,-1,37,39,-1,41,43,-1,45,-1,47,-1,49,51,53,55,57,59,61,63,-1,-1,-1,-1,-1,-1,-1,-1,-1,-1,-1,-1,-1,-1,-1,-1,-1,-1,-1,-1,-1,-1,-1,-1],"loss_changes":[9.254845E0,2.9484491E0,7.3469286E0,4.389448E0,3.751564E-2,5.266509E0,1.5770885E1,0E0,2.192345E0,0E0,0E0,5.9275427E0,2.143177E0,6.7480965E0,9.898513E0,1.7059618E0,0E0,3.6854746E0,2.8900688E0,7.585169E0,1.4630642E0,3.7487621E0,0E0,8.4237175E0,9.210318E0,0E0,1.1577942E0,2.227645E0,0E0,2.5140135E0,0E0,1.5688977E0,0E0,1.0207903E0,9.226246E-1,2.4691715E0,2.1631117E0,4.9614196E0,6.2603016E0,8.830958E0,1.2084972E1,0E0,0E0,0E0,0E0,0E0,0E0,0E0,0E0,0E0,0E0,0E0,0E0,0E0,0E0,0E0,0E0,0E0,0E0,0E0,0E0,0E0,0E0,0E0,0E0],"parents":[2147483647,0,0,1,1,2,2,3,3,4,4,5,5,6,6,8,8,11,11,12,12,13,13,14,14,15,15,17,17,18,18,19,19,20,20,21,21,23,23,24,24,26,26,27,27,29,29,31,31,33,33,34,34,35,35,36,36,37,37,38,38,39,39,40,40],"right_children":[2,4,6,8,10,12,14,-1,16,-1,-1,18,20,22,24,26,-1,28,30,32,34,36,-1,38,40,-1,42,44,-1,46,-1,48,-1,50,52,54,56,58,60,62,64,-1,-1,-1,-1,-1,-1,-1,-1,-1,-1,-1,-1,-1,-1,-1,-1,-1,-1,-1,-1,-1,-1,-1,-1],"split_conditions":[4.0689673E0,2.2396417E-3,2.1881838E-3,1.510574E-3,2.5243816E1,3.976533E-1,2.5740026E-3,-2.6157495E-1,2.0431077E0,-2.8649798E-1,-1.02211155E-1,1.33887E-2,1.3280213E-3,4.866314E0,2.8368793E-3,3.8094985E0,-1.7258002E-1,9.114494E1,9.038152E-1,4.4357476E0,6.3693416E-1,5.5183277E0,2.6467758E-1,4.3577212E-1,3.5842294E-3,-1.1501513E-1,1.3861614E0,6.783678E0,-2.2416396E-1,1.1496561E-1,-3.5147732E-1,4.1731887E0,-3.2493666E-1,2.3222263E-1,9.093644E0,3.3884018E1,4.557793E0,7E0,1.1602031E1,5.128139E2,3.8412292E-3,2.782342E-1,-3.2616977E-2,5.8428183E-2,2.9390112E-1,-2.2659405E-1,1.5007304E-1,3.0921674E-3,3.2234553E-1,-1.339867E-1,1.5231085E-1,2.993621E-1,3.3884984E-2,-3.217956E-1,8.561193E-2,2.4106435E-1,-1.6082488E-1,-1.9442262E-1,1.5361087E-1,3.7904397E-1,-4.811974E-2,-2.0302449E-1,2.2907634E-1,2.3335747E-1,-1.8363833E-2],"split_indices":[4,5,5,5,19,11,5,0,8,0,0,11,5,4,5,4,0,0,13,4,12,11,0,11,5,0,20,19,0,11,0,4,0,20,3,19,4,16,22,21,5,0,0,0,0,0,0,0,0,0,0,0,0,0,0,0,0,0,0,0,0,0,0,0,0],"split_type":[0,0,0,0,0,0,0,0,0,0,0,0,0,0,0,0,0,0,0,0,0,0,0,0,0,0,0,0,0,0,0,0,0,0,0,0,0,0,0,0,0,0,0,0,0,0,0,0,0,0,0,0,0,0,0,0,0,0,0,0,0,0,0,0,0],"sum_hessian":[3.0577777E2,2.629839E1,2.7947937E2,1.3029148E1,1.3269241E1,5.2512985E1,2.2696638E2,5.0882387E0,7.9409094E0,1.1677577E1,1.5916647E0,2.526659E1,2.7246395E1,2.7971645E1,1.9899475E2,6.2856984E0,1.6552106E0,1.6959076E1,8.307513E0,8.113402E0,1.9132992E1,2.6394297E1,1.5773493E0,3.0497683E1,1.6849706E2,1.1217151E0,5.1639833E0,1.5182499E1,1.7765771E0,4.5134406E0,3.7940729E0,5.8268914E0,2.286511E0,2.5221975E0,1.6610794E1,2.3529003E1,2.8652928E0,1.2759492E1,1.773819E1,3.598942E1,1.3250764E2,4.0390835E0,1.1249E0,9.733522E0,5.448977E0,1.7968463E0,2.7165942E0,1.964683E0,3.8622084E0,1.1182034E0,1.403994E0,1.50433235E1,1.5674704E0,2.2504072E1,1.0249307E0,1.3956027E0,1.46969E0,6.325561E0,6.4339314E0,1.4120292E1,3.6178977E0,3.1946514E1,4.042905E0,1.9206827E1,1.1330082E2],"tree_param":{"num_deleted":"0","num_feature":"23","num_nodes":"65","size_leaf_vector":"1"}},{"base_weights":[-3.1026216E-2,5.0226174E-4,-2.790858E-1,-7.8506255E-1,2.5426853E-2,-2.5262654E-1,-5.2396316E-2,6.8281E-2,-3.6166462E-1,-1.5362728E-2,4.443062E-1,-8.767152E-1,1.4769599E-1,-6.973196E-2,9.03658E-1,5.75311E-1,-6.3939774E-1,-3.146824E-1,4.305706E-2,8.2085484E-1,-6.7093235E-1,1.2400776E-2,-2.0146668E-1,3.1271952E-1,-5.856084E-2,-4.4187102E-2,2.1376218E-1,2.6230447E-2,-3.1402418E-1,-1.397679E-1,3.2351133E-1,-2.4253102E-1,2.1769287E-2],"categories":[],"categories_nodes":[],"categories_segments":[],"categories_sizes":[],"default_left":[0,0,0,0,0,0,0,0,0,0,0,0,0,0,0,0,0,0,0,0,0,0,0,0,0,0,0,0,0,0,0,0,0],"id":12,"left_children":[1,3,-1,5,7,-1,-1,9,11,13,15,17,19,21,23,25,27,-1,-1,29,31,-1,-1,-1,-1,-1,-1,-1,-1,-1,-1,-1,-1],"loss_changes":[8.254642E0,5.546718E0,0E0,1.5617466E-1,4.5791483E0,0E0,0E0,7.8079214E0,7.3504887E0,1.0249386E1,6.780137E0,2.5806532E0,8.648447E0,1.29556265E1,1.9504147E0,4.152915E0,1.6739693E0,0E0,0E0,3.32343E0,7.928152E-1,0E0,0E0,0E0,0E0,0E0,0E0,0E0,0E0,0E0,0E0,0E0,0E0],"parents":[2147483647,0,0,1,1,3,3,4,4,7,7,8,8,9,9,10,10,11,11,12,12,13,13,14,14,15,15,16,16,19,19,20,20],"right_children":[2,4,-1,6,8,-1,-1,10,12,14,16,18,20,22,24,26,28,-1,-1,30,32,-1,-1,-1,-1,-1,-1,-1,-1,-1,-1,-1,-1],"split_conditions":[6.773286E2,3.9158685E0,-2.790858E-1,5.128139E2,1.5850144E-2,-2.5262654E-1,-5.2396316E-2,5.4347827E-3,6.8670077E0,5.660774E0,1.020839E1,4.7968655E2,2.4169184E-2,4.032258E-3,1.01824554E3,4.2801175E0,9.230769E-3,-3.146824E-1,4.305706E-2,2.0253165E-2,9.979798E-1,1.2400776E-2,-2.0146668E-1,3.1271952E-1,-5.856084E-2,-4.4187102E-2,2.1376218E-1,2.6230447E-2,-3.1402418E-1,-1.397679E-1,3.2351133E-1,-2.4253102E-1,2.1769287E-2],"split_indices":[15,4,0,21,5,0,0,5,4,4,4,21,5,5,21,4,5,0,0,5,13,0,0,0,0,0,0,0,0,0,0,0,0],"split_type":[0,0,0,0,0,0,0,0,0,0,0,0,0,0,0,0,0,0,0,0,0,0,0,0,0,0,0,0,0,0,0,0,0],"sum_hessian":[2.9012897E2,2.8126706E2,8.861917E0,7.7117953E0,2.7355527E2,6.7057757E0,1.0060196E0,2.470306E2,2.6524675E1,2.0286424E2,4.4166348E1,1.2830072E1,1.3694602E1,1.9240565E2,1.0458587E1,3.9821594E1,4.3447533E0,1.0952973E1,1.8770996E0,7.513513E0,6.181089E0,1.6321524E2,2.9190416E1,9.331757E0,1.1268303E0,6.3438535E0,3.347774E1,1.8425149E0,2.5022383E0,1.1179919E0,6.395521E0,5.142649E0,1.0384399E0],"tree_param":{"num_deleted":"0","num_feature":"23","num_nodes":"33","size_leaf_vector":"1"}},{"base_weights":[-2.8523054E-2,-3.321018E-3,-2.687916E-1,2.152757E-2,-7.030356E-1,-9.580064E-2,1.9147417E-1,-7.895829E-1,-2.3902958E-2,3.7840772E-2,-3.592645E-1,-6.3002326E-2,3.9623109E-1,-6.7087606E-2,-2.5329039E-1,-1.936572E-1,2.5871223E-1,-1.1175535E0,-2.5864783E-1,2.4538311E-1,-3.3388028E-1,6.886079E-1,1.6797179E-1,-1.6809171E-1,3.6793575E-2,1.4561497E-1,-3.1094296E-2,-3.7501273E-1,-9.779596E-2,-2.8336927E-1,-5.26887E-2,-1.391634E-1,1.2832744E-1,5.3018827E-2,-1.6807655E-1,1.2407833E-1,3.8263723E-1,-1.769224E-1,1.0204816E-1],"categories":[],"categories_nodes":[],"categories_segments":[],"categories_sizes":[],"default_left":[0,0,0,0,0,0,0,0,0,0,0,0,0,0,0,0,0,0,0,0,0,0,0,0,0,0,0,0,0,0,0,0,0,0,0,0,0,0,0],"id":13,"left_children":[1,3,-1,5,7,9,11,13,-1,15,17,19,21,-1,-1,23,25,27,29,31,33,35,37,-1,-1,-1,-1,-1,-1,-1,-1,-1,-1,-1,-1,-1,-1,-1,-1],"loss_changes":[6.048779E0,4.7097945E0,0E0,5.236944E0,4.3826437E-1,5.4885654E0,5.6120214E0,6.0328007E-2,0E0,5.371354E0,3.710855E0,4.1476493E0,3.8588476E0,0E0,0E0,6.0279E0,4.459855E0,2.0499659E-1,2.543816E0,3.2169924E0,3.143034E0,3.6343412E0,4.736628E0,0E0,0E0,0E0,0E0,0E0,0E0,0E0,0E0,0E0,0E0,0E0,0E0,0E0,0E0,0E0,0E0],"parents":[2147483647,0,0,1,1,3,3,4,4,5,5,6,6,7,7,9,9,10,10,11,11,12,12,15,15,16,16,17,17,18,18,19,19,20,20,21,21,22,22],"right_children":[2,4,-1,6,8,10,12,14,-1,16,18,20,22,-1,-1,24,26,28,30,32,34,36,38,-1,-1,-1,-1,-1,-1,-1,-1,-1,-1,-1,-1,-1,-1,-1,-1],"split_conditions":[6.773286E2,1.941388E2,-2.687916E-1,7E0,4.208187E-1,5.0573746E1,8.334867E-1,1.5772871E-3,-2.3902958E-2,1.1388557E0,5E0,9.498863E0,3.003003E-3,-6.7087606E-2,-2.5329039E-1,6.302858E-1,5.437324E-1,9.9448115E-1,3.0067423E1,2.5168417E-3,6.899775E1,2.6143792E-3,3.5842294E-3,-1.6809171E-1,3.6793575E-2,1.4561497E-1,-3.1094296E-2,-3.7501273E-1,-9.779596E-2,-2.8336927E-1,-5.26887E-2,-1.391634E-1,1.2832744E-1,5.3018827E-2,-1.6807655E-1,1.2407833E-1,3.8263723E-1,-1.769224E-1,1.0204816E-1],"split_indices":[15,0,0,6,20,0,11,5,0,8,16,19,5,0,0,17,20,13,1,11,0,5,5,0,0,0,0,0,0,0,0,0,0,0,0,0,0,0,0],"split_type":[0,0,0,0,0,0,0,0,0,0,0,0,0,0,0,0,0,0,0,0,0,0,0,0,0,0,0,0,0,0,0,0,0,0,0,0,0,0,0],"sum_hessian":[2.7582278E2,2.6901102E2,6.8117623E0,2.6072137E2,8.289624E0,1.5449617E2,1.0622521E2,7.044857E0,1.2447677E0,1.0307036E2,5.1425816E1,4.7670967E1,5.8554245E1,1.0695217E0,5.975335E0,5.0384735E1,5.268562E1,4.8402967E0,4.6585518E1,2.2336142E1,2.5334826E1,2.4787374E1,3.376687E1,2.297795E1,2.7406786E1,3.2202274E1,2.0483347E1,3.6501515E0,1.190145E0,3.909211E0,4.2676308E1,4.2529135E0,1.808323E1,7.8493E0,1.7485527E1,1.8038717E1,6.7486567E0,5.8035393E0,2.796333E1],"tree_param":{"num_deleted":"0","num_feature":"23","num_nodes":"39","size_leaf_vector":"1"}},{"base_weights":[-2.6961444E-2,-4.0125358E-1,1.8812511E-2,5.110051E-2,-8.925234E-1,3.9859552E-2,-8.3668596E-1,-2.3787753E-1,3.8889855E-1,-1.4652741E-2,-2.8658757E-1,4.8804865E-3,5.949508E-1,-2.562818E-1,-4.0122244E-1,5.4153836E-1,-1.8987842E-1,-6.360265E-1,4.017059E-2,7.8050077E-1,-1.2642097E-1,-2.1318887E-1,9.888249E-2,-9.1253035E-2,6.876042E-1,1.8761575E-1,-1.0177412E0,2.7362487E-1,-4.6546992E-2,2.1408226E-2,9.02278E-1,2.4401635E-1,3.670171E-2,2.8870916E-1,-1.3699132E-1,-3.7520623E-1,7.3144466E-2,1.361081E-1,-9.728369E-2,-1.1745214E-1,2.854179E-2,2.9095644E-1,4.2198494E-2],"categories":[],"categories_nodes":[],"categories_segments":[],"categories_sizes":[],"default_left":[0,0,0,0,0,0,0,0,0,0,0,0,0,0,0,0,0,0,0,0,0,0,0,0,0,0,0,0,0,0,0,0,0,0,0,0,0,0,0,0,0,0,0],"id":14,"left_children":[1,3,5,7,9,11,13,-1,15,-1,-1,17,19,21,-1,23,-1,25,27,29,-1,-1,-1,-1,31,33,35,37,39,-1,41,-1,-1,-1,-1,-1,-1,-1,-1,-1,-1,-1,-1],"loss_changes":[4.60522E0,6.553988E0,4.355936E0,4.925223E0,6.9969654E-1,4.5649943E0,1.3457036E0,0E0,2.251173E0,0E0,0E0,5.0539117E0,2.957336E0,1.2798171E0,0E0,1.5907605E0,0E0,3.8574615E0,4.2976646E0,9.8369503E-1,0E0,0E0,0E0,0E0,6.0040236E-1,2.704282E0,2.6925402E0,6.3348103E0,7.622119E0,0E0,3.9225388E-1,0E0,0E0,0E0,0E0,0E0,0E0,0E0,0E0,0E0,0E0,0E0,0E0],"parents":[2147483647,0,0,1,1,2,2,3,3,4,4,5,5,6,6,8,8,11,11,12,12,13,13,15,15,17,17,18,18,19,19,24,24,25,25,26,26,27,27,28,28,30,30],"right_children":[2,4,6,8,10,12,14,-1,16,-1,-1,18,20,22,-1,24,-1,26,28,30,-1,-1,-1,-1,32,34,36,38,40,-1,42,-1,-1,-1,-1,-1,-1,-1,-1,-1,-1,-1,-1],"split_conditions":[4.1448035E0,2.2396417E-3,3.954189E3,1.2919897E-3,6.6144985E-1,9.217272E0,5.188005E-1,-2.3787753E-1,9.95827E0,-1.4652741E-2,-2.8658757E-1,1.3784781E1,1.1845422E1,5.890543E-1,-4.0122244E-1,3.8636599E0,-1.8987842E-1,1.4309022E-3,3.7398552E1,4.3669432E-2,-1.2642097E-1,-2.1318887E-1,9.888249E-2,-9.1253035E-2,2.0789148E2,3.3496046E-1,3.591598E0,5.718632E-1,6.314201E-1,2.1408226E-2,1.0179004E2,2.4401635E-1,3.670171E-2,2.8870916E-1,-1.3699132E-1,-3.7520623E-1,7.3144466E-2,1.361081E-1,-9.728369E-2,-1.1745214E-1,2.854179E-2,2.9095644E-1,4.2198494E-2],"split_indices":[4,5,21,5,13,4,17,0,9,0,0,15,4,7,0,4,0,11,15,20,0,0,0,0,15,20,11,20,22,0,0,0,0,0,0,0,0,0,0,0,0,0,0],"split_type":[0,0,0,0,0,0,0,0,0,0,0,0,0,0,0,0,0,0,0,0,0,0,0,0,0,0,0,0,0,0,0,0,0,0,0,0,0,0,0,0,0,0,0],"sum_hessian":[2.6735446E2,2.8286959E1,2.390675E2,1.51932335E1,1.3093725E1,2.3425769E2,4.8098183E0,3.9575424E0,1.1235691E1,1.0298251E0,1.20639E1,2.2132E2,1.2937685E1,2.9278598E0,1.8819585E0,1.0184383E1,1.0513078E0,1.0662083E1,2.1065793E2,1.1136598E1,1.8010873E0,1.5291356E0,1.3987242E0,1.3404968E0,8.843886E0,3.5375185E0,7.1245646E0,5.6472294E1,1.5418562E2,1.8645927E0,9.272005E0,6.875083E0,1.968803E0,1.3819212E0,2.1555974E0,6.02134E0,1.1032245E0,4.3586636E1,1.2885656E1,4.4377537E1,1.0980809E2,8.26523E0,1.0067747E0],"tree_param":{"num_deleted":"0","num_feature":"23","num_nodes":"43","size_leaf_vector":"1"}},{"base_weights":[-2.5009878E-2,-5.920402E-3,-2.543466E-1,1.0850522E-1,-1.2455899E-1,2.8230634E-1,-3.3133006E-1,6.4606974E-3,-5.0003606E-1,2.867141E-2,5.745729E-1,-8.5813063E-1,2.1472813E-1,7.299984E-2,-9.179438E-1,-6.7146903E-1,3.823945E-2,-1.8154883E-1,6.330279E-1,1.7496972E-1,8.6701924E-1,8.8360704E-2,-9.839921E-1,7.462139E-1,-3.2011852E-1,-4.9989867E-1,1.4934732E-1,-2.5469884E-2,-3.285385E-1,-8.394177E-1,-4.6908293E-2,3.568693E-1,-2.819277E-1,2.294541E-2,-1.9812623E-1,-2.004381E-1,2.9348472E-1,1.4066178E-1,-2.5784934E-1,-2.0449715E-2,2.9165292E-1,-3.29391E-1,3.0582428E-2,-3.973536E-2,2.5817898E-1,-1.6212304E-1,2.336342E-1,-2.1216963E-1,1.9613674E-1,1.1986369E-1,-1.3997297E-2,1.2107309E-1,-2.8265297E-1,1.264807E-1,-2.2074343E-1,-2.0327897E-1,5.5972254E-3],"categories":[],"categories_nodes":[],"categories_segments":[],"categories_sizes":[],"default_left":[0,0,0,0,0,0,0,0,0,0,0,0,0,0,0,0,0,0,0,0,0,0,0,0,0,0,0,0,0,0,0,0,0,0,0,0,0,0,0,0,0,0,0,0,0,0,0,0,0,0,0,0,0,0,0,0,0],"id":15,"left_children":[1,3,-1,5,7,9,11,13,15,17,19,21,23,25,27,29,31,33,35,37,39,-1,41,43,45,47,49,-1,-1,51,53,-1,55,-1,-1,-1,-1,-1,-1,-1,-1,-1,-1,-1,-1,-1,-1,-1,-1,-1,-1,-1,-1,-1,-1,-1,-1],"loss_changes":[4.0701118E0,3.4693813E0,0E0,1.0040445E1,6.1747212E0,6.9372845E0,1.0918222E1,5.8479986E0,3.0213842E0,6.629283E0,4.9354877E0,3.0741463E0,5.6745863E0,3.9500246E0,8.494015E-1,2.5489912E0,3.5747368E0,4.8472157E0,6.6982303E0,6.376732E0,2.5133018E0,0E0,2.2820568E0,1.1081114E0,2.8974915E0,3.0096066E0,3.8904731E0,0E0,0E0,2.856577E0,2.3398955E0,0E0,9.265454E-1,0E0,0E0,0E0,0E0,0E0,0E0,0E0,0E0,0E0,0E0,0E0,0E0,0E0,0E0,0E0,0E0,0E0,0E0,0E0,0E0,0E0,0E0,0E0,0E0],"parents":[2147483647,0,0,1,1,3,3,4,4,5,5,6,6,7,7,8,8,9,9,10,10,11,11,12,12,13,13,14,14,15,15,16,16,17,17,18,18,19,19,20,20,22,22,23,23,24,24,25,25,26,26,29,29,30,30,32,32],"right_children":[2,4,-1,6,8,10,12,14,16,18,20,22,24,26,28,30,32,34,36,38,40,-1,42,44,46,48,50,-1,-1,52,54,-1,56,-1,-1,-1,-1,-1,-1,-1,-1,-1,-1,-1,-1,-1,-1,-1,-1,-1,-1,-1,-1,-1,-1,-1,-1],"split_conditions":[6.773286E2,4.4032683E0,-2.543466E-1,4.7802567E0,8.672625E1,1.2823331E0,5.3273263E0,1.086354E0,2.6951636E2,3.2159803E0,7E0,2.1008404E-3,5.7471264E-3,1.2172588E1,5.1484942E0,5.089498E0,2.7623337E2,1.12914856E2,7.3468673E-1,3.670701E1,4.1513195E0,8.8360704E-2,1.7218533E1,3.085236E-1,1.0978237E0,9.9323595E-1,1.523106E0,-2.5469884E-2,-3.285385E-1,2.0764484E0,5.868545E-3,3.568693E-1,3.2031747E2,2.294541E-2,-1.9812623E-1,-2.004381E-1,2.9348472E-1,1.4066178E-1,-2.5784934E-1,-2.0449715E-2,2.9165292E-1,-3.29391E-1,3.0582428E-2,-3.973536E-2,2.5817898E-1,-1.6212304E-1,2.336342E-1,-2.1216963E-1,1.9613674E-1,1.1986369E-1,-1.3997297E-2,1.2107309E-1,-2.8265297E-1,1.264807E-1,-2.2074343E-1,-2.0327897E-1,5.5972254E-3],"split_indices":[15,3,0,4,15,11,4,20,15,3,16,5,5,0,3,4,15,21,12,1,4,0,19,17,18,12,8,0,0,9,5,0,15,0,0,0,0,0,0,0,0,0,0,0,0,0,0,0,0,0,0,0,0,0,0,0,0],"split_type":[0,0,0,0,0,0,0,0,0,0,0,0,0,0,0,0,0,0,0,0,0,0,0,0,0,0,0,0,0,0,0,0,0,0,0,0,0,0,0,0,0,0,0,0,0,0,0,0,0,0,0,0,0,0,0,0,0],"sum_hessian":[2.5844595E2,2.5357025E2,4.875707E0,1.2912042E2,1.2444982E2,9.2806175E1,3.631425E1,9.298592E1,3.1463892E1,5.0274784E1,4.253139E1,1.8192163E1,1.8122087E1,8.7601364E1,5.384564E0,2.367599E1,7.787903E0,3.7819275E1,1.2455512E1,1.8648325E1,2.3883064E1,1.6589538E0,1.653321E1,8.891384E0,9.230703E0,9.649026E0,7.795234E1,1.2038318E0,4.1807323E0,1.838746E1,5.2885284E0,1.1036645E0,6.6842384E0,2.5122593E1,1.2696682E1,2.4158328E0,1.003968E1,1.4948152E1,3.7001736E0,2.4496412E0,2.1433424E1,1.4952713E1,1.5804969E0,1.005945E0,7.885439E0,8.112626E0,1.1180773E0,8.507155E0,1.14187E0,3.3786182E1,4.4166153E1,1.180496E0,1.7206964E1,3.3787267E0,1.9098018E0,2.344218E0,4.3400207E0],"tree_param":{"num_deleted":"0","num_feature":"23","num_nodes":"57","size_leaf_vector":"1"}},{"base_weights":[-2.4454594E-2,8.014782E-3,-4.6220058E-1,-1.2408725E-2,3.3971888E-1,-2.6272932E-1,-1.4562759E-1,-2.3834418E-1,4.7004078E-2,2.2614655E-1,-5.763829E-1,-3.3632267E-1,9.095964E-1,1.3306443E-1,-2.5303137E-1,5.699085E-1,-1.3185407E-1,-5.1510967E-3,-2.1230608E-1,8.278405E-2,-7.235026E-1,-4.1292787E-2,4.1553053E-1,-2.2081956E-2,5.903735E-1,1.5498745E-1,-4.2319828E-1,8.0789024E-1,-1.858603E-2,-2.7409049E-2,2.7407214E-1,-2.5243565E-1,-7.497462E-2,-3.9255615E-2,1.05904885E-1,2.8707078E-1,4.600947E-5,1.08308196E-1,-1.7967933E-1,3.955033E-2,-1.7212588E-1,3.2480216E-1,5.21842E-2],"categories":[],"categories_nodes":[],"categories_segments":[],"categories_sizes":[],"default_left":[0,0,0,0,0,0,0,0,0,0,0,0,0,0,0,0,0,0,0,0,0,0,0,0,0,0,0,0,0,0,0,0,0,0,0,0,0,0,0,0,0,0,0],"id":16,"left_children":[1,3,5,7,-1,-1,9,11,13,15,17,19,21,23,25,27,-1,-1,-1,29,31,-1,-1,33,35,37,39,41,-1,-1,-1,-1,-1,-1,-1,-1,-1,-1,-1,-1,-1,-1,-1],"loss_changes":[3.5070007E0,5.305889E0,2.102998E0,3.0626304E0,0E0,0E0,1.8678306E0,5.647901E0,4.7027802E0,1.7474017E0,3.7758887E-1,7.279357E0,2.1849904E0,1.0029358E1,2.8879976E0,7.642095E-1,0E0,0E0,0E0,3.304294E0,1.0872545E0,0E0,0E0,4.3862953E0,7.7441864E0,2.1883647E0,2.49516E0,4.2504525E-1,0E0,0E0,0E0,0E0,0E0,0E0,0E0,0E0,0E0,0E0,0E0,0E0,0E0,0E0,0E0],"parents":[2147483647,0,0,1,1,2,2,3,3,6,6,7,7,8,8,9,9,10,10,11,11,12,12,13,13,14,14,15,15,19,19,20,20,23,23,24,24,25,25,26,26,27,27],"right_children":[2,4,6,8,-1,-1,10,12,14,16,18,20,22,24,26,28,-1,-1,-1,30,32,-1,-1,34,36,38,40,42,-1,-1,-1,-1,-1,-1,-1,-1,-1,-1,-1,-1,-1,-1,-1],"split_conditions":[3.459713E2,3.327362E2,3.5842294E-3,4.314895E0,3.3971888E-1,-2.6272932E-1,9.4571936E-1,2.1810163E1,1.1989079E2,1.6805548E1,3.7395244E0,2.352941E-3,4.1513195E0,3.5807579E0,5.8768888E0,3.8852295E-1,-1.3185407E-1,-5.1510967E-3,-2.1230608E-1,9.4713545E-1,1.6443478E2,-4.1292787E-2,4.1553053E-1,9E0,4.7802567E0,1.2469146E1,3.9937654E-1,9E0,-1.858603E-2,-2.7409049E-2,2.7407214E-1,-2.5243565E-1,-7.497462E-2,-3.9255615E-2,1.05904885E-1,2.8707078E-1,4.600947E-5,1.08308196E-1,-1.7967933E-1,3.955033E-2,-1.7212588E-1,3.2480216E-1,5.21842E-2],"split_indices":[15,15,5,4,0,0,14,22,15,22,22,5,4,22,19,20,0,0,0,17,15,0,0,6,4,2,17,6,0,0,0,0,0,0,0,0,0,0,0,0,0,0,0],"split_type":[0,0,0,0,0,0,0,0,0,0,0,0,0,0,0,0,0,0,0,0,0,0,0,0,0,0,0,0,0,0,0,0,0,0,0,0,0,0,0,0,0,0,0],"sum_hessian":[2.4547946E2,2.2944247E2,1.6036978E1,2.2632051E2,3.1219704E0,6.187448E0,9.84953E0,4.649548E1,1.7982503E2,5.541661E0,4.3078694E0,4.3490517E1,3.0049622E0,1.4017467E2,3.9650352E1,3.749288E0,1.7923728E0,1.034175E0,3.2736945E0,2.1261732E1,2.2228786E1,1.1602329E0,1.8447292E0,1.0537644E2,3.4798233E1,1.1695822E1,2.7954529E1,2.5211473E0,1.2281407E0,1.8313038E1,2.9486938E0,1.7174595E1,5.054191E0,8.219336E1,2.3183083E1,2.1083828E1,1.3714404E1,9.594778E0,2.1010432E0,5.9913254E0,2.1963203E1,1.2649931E0,1.2561543E0],"tree_param":{"num_deleted":"0","num_feature":"23","num_nodes":"43","size_leaf_vector":"1"}},{"base_weights":[-1.7482465E-2,3.7697805E-3,-6.432891E-1,-7.6995736E-1,2.032271E-2,6.0759865E-2,-8.004979E-1,-4.578194E-2,-2.7063718E-1,-2.5101143E-1,6.5825455E-2,-2.1595934E-2,-2.9146332E-1,-4.3091065E-1,4.3883854E-1,-4.7221166E-1,1.0465817E-1,-5.4304254E-1,2.1206672E-1,7.451349E-1,-1.3433829E-1,-2.7305977E-2,-8.148056E-1,-3.257445E-1,1.5205501E-1,-5.4732993E-2,-2.3454385E-1,2.15205E-1,-4.007924E-2,-1.6932108E-2,3.143405E-1,-1.3898139E-1,2.4486437E-1,-2.9639274E-1,2.1194682E-2,2.1942029E-2,-2.5812307E-1,8.569683E-2,-1.1525121E-2],"categories":[],"categories_nodes":[],"categories_segments":[],"categories_sizes":[],"default_left":[0,0,0,0,0,0,0,0,0,0,0,0,0,0,0,0,0,0,0,0,0,0,0,0,0,0,0,0,0,0,0,0,0,0,0,0,0,0,0],"id":17,"left_children":[1,3,5,7,9,-1,11,-1,-1,13,15,-1,-1,17,19,21,23,25,27,29,-1,31,33,35,37,-1,-1,-1,-1,-1,-1,-1,-1,-1,-1,-1,-1,-1,-1],"loss_changes":[3.1705935E0,2.979062E0,1.203253E0,2.5986505E-1,2.825462E0,0E0,7.779641E-1,0E0,0E0,4.2698393E0,4.136766E0,0E0,0E0,2.0318975E0,2.3152535E0,2.0126424E0,3.7883475E0,1.830616E0,9.1096145E-1,1.4659336E0,0E0,2.8944743E0,1.220995E0,4.0082226E0,4.2295904E0,0E0,0E0,0E0,0E0,0E0,0E0,0E0,0E0,0E0,0E0,0E0,0E0,0E0,0E0],"parents":[2147483647,0,0,1,1,2,2,3,3,4,4,6,6,9,9,10,10,13,13,14,14,15,15,16,16,17,17,18,18,19,19,21,21,22,22,23,23,24,24],"right_children":[2,4,6,8,10,-1,12,-1,-1,14,16,-1,-1,18,20,22,24,26,28,30,-1,32,34,36,38,-1,-1,-1,-1,-1,-1,-1,-1,-1,-1,-1,-1,-1,-1],"split_conditions":[2.7898935E1,2.5337514E-1,1.8382353E-3,8.083557E-1,5E0,6.0759865E-2,7.264217E-1,-4.578194E-2,-2.7063718E-1,8.788569E-1,6.807931E-1,-2.1595934E-2,-2.9146332E-1,3.591598E0,9.323509E0,4.955978E0,4.1704884E0,5.035866E0,2.9850747E-3,1.0007097E0,-1.3433829E-1,5.703199E0,7.284082E2,2.2396417E-3,8.9551497E-1,-5.4732993E-2,-2.3454385E-1,2.15205E-1,-4.007924E-2,-1.6932108E-2,3.143405E-1,-1.3898139E-1,2.4486437E-1,-2.9639274E-1,2.1194682E-2,2.1942029E-2,-2.5812307E-1,8.569683E-2,-1.1525121E-2],"split_indices":[22,17,5,13,16,0,13,0,0,17,13,0,0,11,2,3,4,19,5,18,0,11,21,5,12,0,0,0,0,0,0,0,0,0,0,0,0,0,0],"split_type":[0,0,0,0,0,0,0,0,0,0,0,0,0,0,0,0,0,0,0,0,0,0,0,0,0,0,0,0,0,0,0,0,0,0,0,0,0,0,0],"sum_hessian":[2.3721179E2,2.3038205E2,6.829744E0,3.8721635E0,2.2650989E2,1.0252643E0,5.8044796E0,1.0627418E0,2.8094218E0,3.1881748E1,1.9462814E2,1.3738625E0,4.430617E0,2.5585033E1,6.2967143E0,1.2350378E1,1.8227777E2,2.1918062E1,3.6669717E0,4.7985845E0,1.49813E0,5.8426247E0,6.507753E0,1.7499058E1,1.647787E2,9.4342375E0,1.2483825E1,1.0527737E0,2.614198E0,1.5382483E0,3.2603362E0,4.1490283E0,1.6935961E0,5.3463693E0,1.1613839E0,1.0516489E1,6.982569E0,9.655399E1,6.822471E1],"tree_param":{"num_deleted":"0","num_feature":"23","num_nodes":"39","size_leaf_vector":"1"}},{"base_weights":[-1.82706E-2,1.1246687E-3,-6.134287E-1,-3.5622936E-2,3.5534474E-1,-7.266002E-1,-1.1937956E-2,1.5676422E-2,-3.3239242E-1,7.859123E-1,-7.645226E-2,-3.1232873E-2,-2.5545636E-1,-9.069357E-2,2.1834801E-1,-1.5546443E-1,-6.235013E-1,-6.451073E-2,9.5759755E-1,3.3642143E-1,-5.2576834E-1,-1.23808786E-1,6.475714E-1,4.123998E-1,-1.5073417E-1,9.3253635E-2,-5.695078E-1,-7.650201E-1,3.3661194E-2,2.615272E-1,1.2580739E0,-9.282158E-2,6.749161E-1,6.599669E-3,-2.2806284E-1,-1.8691014E-2,-1.4022322E-1,2.6892477E-1,-3.7748724E-2,-1.1499355E-1,1.5346956E-1,-2.571895E-1,9.293392E-3,-2.1693502E-2,2.9215205E-1,-2.2695373E-1,9.72962E-2,-2.921076E-1,-5.829E-2,-2.1110626E-1,2.6962134E-1,4.271168E-1,6.36293E-2,2.680209E-1,2.4733685E-2],"categories":[],"categories_nodes":[],"categories_segments":[],"categories_sizes":[],"default_left":[0,0,0,0,0,0,0,0,0,0,0,0,0,0,0,0,0,0,0,0,0,0,0,0,0,0,0,0,0,0,0,0,0,0,0,0,0,0,0,0,0,0,0,0,0,0,0,0,0,0,0,0,0,0,0],"id":18,"left_children":[1,3,5,7,9,11,-1,13,15,17,19,-1,-1,21,23,25,27,-1,29,31,33,35,37,39,41,43,45,47,-1,49,51,-1,53,-1,-1,-1,-1,-1,-1,-1,-1,-1,-1,-1,-1,-1,-1,-1,-1,-1,-1,-1,-1,-1,-1],"loss_changes":[2.7003813E0,2.9738777E0,4.5038104E-1,3.1568959E0,4.052395E0,3.8635492E-1,0E0,3.8455918E0,1.4768727E0,2.068874E0,2.3348894E0,0E0,0E0,2.942727E0,4.457918E0,2.14746E0,1.2538896E0,0E0,1.6447363E0,1.6673915E0,7.821983E-1,2.356863E0,1.1110826E0,3.391306E0,2.8359854E0,2.0480647E0,1.5445843E0,9.465761E-1,0E0,3.1589293E0,7.946367E-1,0E0,5.337026E-1,0E0,0E0,0E0,0E0,0E0,0E0,0E0,0E0,0E0,0E0,0E0,0E0,0E0,0E0,0E0,0E0,0E0,0E0,0E0,0E0,0E0,0E0],"parents":[2147483647,0,0,1,1,2,2,3,3,4,4,5,5,7,7,8,8,9,9,10,10,13,13,14,14,15,15,16,16,18,18,19,19,20,20,21,21,22,22,23,23,24,24,25,25,26,26,27,27,29,29,30,30,32,32],"right_children":[2,4,6,8,10,12,-1,14,16,18,20,-1,-1,22,24,26,28,-1,30,32,34,36,38,40,42,44,46,48,-1,50,52,-1,54,-1,-1,-1,-1,-1,-1,-1,-1,-1,-1,-1,-1,-1,-1,-1,-1,-1,-1,-1,-1,-1,-1],"split_conditions":[1.941388E2,2.2708397E1,5.3273263E0,1.3476093E1,3.6319613E-3,1.5772871E-3,-1.1937956E-2,7E0,3.7999615E-1,5.395449E-1,1.1560972E3,-3.1232873E-2,-2.5545636E-1,9.352292E0,1.26822945E2,6.922417E-1,6.611148E-1,-6.451073E-2,1.0432737E0,7.3132944E0,2.594867E-2,1.0639421E0,9.230769E-3,2.5168417E-3,1.5105424E2,1.4606626E1,3.066114E-1,1.3452187E2,3.3661194E-2,9.2398316E-1,9.276384E0,-9.282158E-2,7.764748E1,6.599669E-3,-2.2806284E-1,-1.8691014E-2,-1.4022322E-1,2.6892477E-1,-3.7748724E-2,-1.1499355E-1,1.5346956E-1,-2.571895E-1,9.293392E-3,-2.1693502E-2,2.9215205E-1,-2.2695373E-1,9.72962E-2,-2.921076E-1,-5.829E-2,-2.1110626E-1,2.6962134E-1,4.271168E-1,6.36293E-2,2.680209E-1,2.4733685E-2],"split_indices":[0,19,4,19,5,5,0,6,20,7,21,0,0,4,15,7,17,0,18,3,11,18,5,11,15,3,20,15,0,12,22,0,0,0,0,0,0,0,0,0,0,0,0,0,0,0,0,0,0,0,0,0,0,0,0],"split_type":[0,0,0,0,0,0,0,0,0,0,0,0,0,0,0,0,0,0,0,0,0,0,0,0,0,0,0,0,0,0,0,0,0,0,0,0,0,0,0,0,0,0,0,0,0,0,0,0,0,0,0,0,0,0,0],"sum_hessian":[2.3287614E2,2.264932E2,6.3829474E0,2.0601968E2,2.0473522E1,5.1084523E0,1.2744951E0,1.764635E2,2.9556175E1,9.840722E0,1.06328E1,1.1602483E0,3.948204E0,1.1608831E2,6.0375187E1,1.9337444E1,1.021873E1,1.4038118E0,8.436911E0,5.6720486E0,4.960751E0,1.1190123E2,4.1870832E0,3.9493423E1,2.0881765E1,1.2564598E1,6.772847E0,8.536768E0,1.6819615E0,3.1078284E0,5.329082E0,1.9800926E0,3.691956E0,1.7584144E0,3.2023368E0,9.5913795E1,1.5987431E1,3.0474858E0,1.1395975E0,4.0589204E0,3.5434505E1,3.5111647E0,1.73706E1,1.1348726E1,1.2158718E0,5.7280626E0,1.0447844E0,5.734127E0,2.802641E0,1.1943547E0,1.9134736E0,4.2887425E0,1.0403397E0,2.326192E0,1.3657643E0],"tree_param":{"num_deleted":"0","num_feature":"23","num_nodes":"55","size_leaf_vector":"1"}},{"base_weights":[-1.4118866E-2,-1.2206126E-1,9.157824E-2,9.8546475E-2,-4.1497475E-1,3.0382735E-1,-4.7030408E-2,-2.7263299E-2,4.83269E-1,-1.8776222E-1,-6.137626E-1,1.63826E-1,9.1869766E-1,-6.03101E-1,6.893949E-2,1.666106E-1,-4.0443566E-1,1.011881E0,-9.41162E-2,2.1443158E-1,-5.58996E-1,-8.15907E-1,-1.8687822E-1,3.9378422E-1,-4.3006632E-1,5.9447747E-2,1.1060727E0,-1.0319746E0,2.9060173E-1,-3.1105852E-1,1.8190959E-1,-7.5031463E-3,7.164141E-1,-8.885706E-1,-2.4001675E-2,1.200092E0,6.89644E-2,3.928664E-1,-4.704145E-1,5.8611965E-1,-2.9446706E-1,-7.136824E-1,1.6796313E-1,-2.1286254E-1,-9.3202853E-1,7.0019805E-1,-5.780511E-1,5.891782E-1,-2.6572734E-1,-1.0162863E0,1.2863176E-2,1.2497617E0,8.881473E-2,-9.268044E-2,-3.261199E-1,2.7790624E-1,-1.4301647E-1,5.64696E-2,-7.926607E-1,5.299993E-1,-1.1904663E-1,-1.899218E-1,5.8247115E-2,3.5940826E-1,-3.1771086E-2,-3.4252804E-2,-2.973708E-1,9.8145925E-2,-1.9000818E-1,4.2706802E-1,8.35098E-2,-3.3223607E-2,1.8198559E-1,9.498254E-2,-2.2817619E-1,-2.294496E-2,2.687602E-1,-2.2446828E-1,3.6085017E-2,-9.606491E-2,-2.871831E-1,-5.5614594E-2,1.3222969E-1,1.3789812E-1,-2.137019E-1,-3.232017E-1,-5.475407E-2,3.0826867E-1,-9.48629E-3,-2.1908504E-1,5.054919E-2,2.2027324E-1,-2.433344E-2,-2.0263171E-1,1.2197745E-1,-4.0165228E-1,-6.9689915E-2,9.725083E-2,-2.3708293E-1,1.8013772E-1,4.619036E-1,6.684485E-2,-1.6195264E-1,-2.762111E-1,-6.952853E-2,2.3946175E-1,-5.3168878E-2,4.651728E-2,-1.9999282E-1],"categories":[],"categories_nodes":[],"categories_segments":[],"categories_sizes":[],"default_left":[0,0,0,0,0,0,0,0,0,0,0,0,0,0,0,0,0,0,0,0,0,0,0,0,0,0,0,0,0,0,0,0,0,0,0,0,0,0,0,0,0,0,0,0,0,0,0,0,0,0,0,0,0,0,0,0,0,0,0,0,0,0,0,0,0,0,0,0,0,0,0,0,0,0,0,0,0,0,0,0,0,0,0,0,0,0,0,0,0,0,0,0,0,0,0,0,0,0,0,0,0,0,0,0,0,0,0,0,0],"id":19,"left_children":[1,3,5,7,9,11,13,15,17,19,21,23,25,27,29,31,33,35,37,39,41,43,45,47,49,-1,51,53,55,57,59,61,63,65,67,69,-1,71,73,75,77,79,81,83,85,87,89,91,93,95,97,99,-1,-1,-1,-1,-1,101,103,105,107,-1,-1,-1,-1,-1,-1,-1,-1,-1,-1,-1,-1,-1,-1,-1,-1,-1,-1,-1,-1,-1,-1,-1,-1,-1,-1,-1,-1,-1,-1,-1,-1,-1,-1,-1,-1,-1,-1,-1,-1,-1,-1,-1,-1,-1,-1,-1,-1],"loss_changes":[2.6195579E0,7.3775826E0,3.4294028E0,3.186895E0,2.0964756E0,3.8087301E0,4.625969E0,3.7497864E0,5.043274E0,3.7466795E0,2.063222E0,5.451943E0,9.0317965E-1,5.0411673E0,2.6202512E0,3.2572336E0,3.181361E0,9.822893E-1,1.7723716E0,2.5146651E0,1.5714798E0,1.0010271E0,3.7180896E0,3.8170462E0,2.9405873E0,0E0,3.7249136E-1,5.882263E-3,2.7790585E0,2.5324464E0,4.9517145E0,3.5024183E0,3.3667188E0,4.929409E-1,2.5106921E0,9.741297E-1,0E0,5.3234947E-1,1.4608043E0,1.6057758E0,1.1988451E0,7.319069E-1,3.780589E-1,1.691769E0,1.3353863E0,8.4087324E-1,9.383948E-1,2.22055E0,2.2528114E0,9.1922617E-1,2.1087828E0,3.697014E-2,0E0,0E0,0E0,0E0,0E0,1.0035942E0,2.2828317E-1,4.2806497E0,3.9824367E0,0E0,0E0,0E0,0E0,0E0,0E0,0E0,0E0,0E0,0E0,0E0,0E0,0E0,0E0,0E0,0E0,0E0,0E0,0E0,0E0,0E0,0E0,0E0,0E0,0E0,0E0,0E0,0E0,0E0,0E0,0E0,0E0,0E0,0E0,0E0,0E0,0E0,0E0,0E0,0E0,0E0,0E0,0E0,0E0,0E0,0E0,0E0,0E0],"parents":[2147483647,0,0,1,1,2,2,3,3,4,4,5,5,6,6,7,7,8,8,9,9,10,10,11,11,12,12,13,13,14,14,15,15,16,16,17,17,18,18,19,19,20,20,21,21,22,22,23,23,24,24,26,26,27,27,28,28,29,29,30,30,31,31,32,32,33,33,34,34,35,35,37,37,38,38,39,39,40,40,41,41,42,42,43,43,44,44,45,45,46,46,47,47,48,48,49,49,50,50,51,51,57,57,58,58,59,59,60,60],"right_children":[2,4,6,8,10,12,14,16,18,20,22,24,26,28,30,32,34,36,38,40,42,44,46,48,50,-1,52,54,56,58,60,62,64,66,68,70,-1,72,74,76,78,80,82,84,86,88,90,92,94,96,98,100,-1,-1,-1,-1,-1,102,104,106,108,-1,-1,-1,-1,-1,-1,-1,-1,-1,-1,-1,-1,-1,-1,-1,-1,-1,-1,-1,-1,-1,-1,-1,-1,-1,-1,-1,-1,-1,-1,-1,-1,-1,-1,-1,-1,-1,-1,-1,-1,-1,-1,-1,-1,-1,-1,-1,-1],"split_conditions":[7.987671E-1,1.33887E-2,2.9850747E-3,6.314201E-1,9.450055E-1,9.6145296E-1,3.5842294E-3,3.3720814E1,5.679431E0,2.0001529E2,6.811654E0,7.8104657E-1,1.9313649E0,5.1382976E0,1.4742794E0,1.2401212E1,1.2721894E1,1.1630547E0,7.082308E1,6.5881057E0,2.7450924E0,1.0103232E0,9.82422E0,9.1857916E-1,1.8874177E0,5.9447747E-2,1.0011349E0,2.962318E1,9.0687853E-1,4.4462566E0,4.4032683E0,4.2894497E0,6.11874E0,8.697498E-1,1.0039459E2,8.863601E0,6.89644E-2,5E0,1.9723866E-3,2.1009555E0,7.913838E0,9E0,3.49837E-1,2.3419203E-3,5.660774E0,5.83422E0,9.9985415E-1,1.1E1,2.6281208E-3,1.0394397E0,9.975287E-1,2.5542784E-3,8.881473E-2,-9.268044E-2,-3.261199E-1,2.7790624E-1,-1.4301647E-1,1.0358656E1,5.2885733E0,4.7885427E0,9.226704E1,-1.899218E-1,5.8247115E-2,3.5940826E-1,-3.1771086E-2,-3.4252804E-2,-2.973708E-1,9.8145925E-2,-1.9000818E-1,4.2706802E-1,8.35098E-2,-3.3223607E-2,1.8198559E-1,9.498254E-2,-2.2817619E-1,-2.294496E-2,2.687602E-1,-2.2446828E-1,3.6085017E-2,-9.606491E-2,-2.871831E-1,-5.5614594E-2,1.3222969E-1,1.3789812E-1,-2.137019E-1,-3.232017E-1,-5.475407E-2,3.0826867E-1,-9.48629E-3,-2.1908504E-1,5.054919E-2,2.2027324E-1,-2.433344E-2,-2.0263171E-1,1.2197745E-1,-4.0165228E-1,-6.9689915E-2,9.725083E-2,-2.3708293E-1,1.8013772E-1,4.619036E-1,6.684485E-2,-1.6195264E-1,-2.762111E-1,-6.952853E-2,2.3946175E-1,-5.3168878E-2,4.651728E-2,-1.9999282E-1],"split_indices":[11,11,5,22,14,13,5,15,22,21,22,17,3,4,3,19,2,20,21,9,8,18,22,13,11,0,14,0,13,4,3,4,4,13,0,19,0,16,5,3,19,16,11,5,4,19,14,16,5,18,14,5,0,0,0,0,0,19,4,4,15,0,0,0,0,0,0,0,0,0,0,0,0,0,0,0,0,0,0,0,0,0,0,0,0,0,0,0,0,0,0,0,0,0,0,0,0,0,0,0,0,0,0,0,0,0,0,0,0],"split_type":[0,0,0,0,0,0,0,0,0,0,0,0,0,0,0,0,0,0,0,0,0,0,0,0,0,0,0,0,0,0,0,0,0,0,0,0,0,0,0,0,0,0,0,0,0,0,0,0,0,0,0,0,0,0,0,0,0,0,0,0,0,0,0,0,0,0,0,0,0,0,0,0,0,0,0,0,0,0,0,0,0,0,0,0,0,0,0,0,0,0,0,0,0,0,0,0,0,0,0,0,0,0,0,0,0,0,0,0,0],"sum_hessian":[2.2762076E2,1.1253767E2,1.1508309E2,6.45702E1,4.796747E1,4.4993427E1,7.008967E1,4.935842E1,1.5211775E1,2.3290827E1,2.4676643E1,3.7680336E1,7.3130894E0,1.1370089E1,5.8719578E1,3.2969646E1,1.6388773E1,7.5484447E0,7.6633306E0,1.1381989E1,1.1908837E1,1.6128119E1,8.548524E0,2.7405664E1,1.0274673E1,1.933911E0,5.3791785E0,7.578548E0,3.7915404E0,1.3054532E1,4.5665047E1,2.5789036E1,7.1806116E0,6.6237745E0,9.764999E0,5.6531935E0,1.8952515E0,3.3212018E0,4.3421288E0,6.490057E0,4.8919315E0,9.834469E0,2.074369E0,3.0616102E0,1.3066508E1,2.374283E0,6.1742406E0,2.12242E1,6.181465E0,3.8649387E0,6.4097347E0,4.1076555E0,1.271523E0,1.0043825E0,6.5741653E0,1.9601982E0,1.8313421E0,7.904822E0,5.1497107E0,2.0821539E1,2.4843506E1,5.765279E0,2.0023758E1,4.240281E0,2.9403307E0,1.0225908E0,5.601184E0,6.4888144E0,3.2761843E0,4.111846E0,1.5413476E0,1.1332058E0,2.187996E0,1.1451324E0,3.1969962E0,2.3073418E0,4.1827154E0,1.9521388E0,2.9397929E0,4.645451E0,5.1890173E0,1.0433857E0,1.0309832E0,1.338755E0,1.7228552E0,1.0578287E1,2.4882214E0,1.36124E0,1.0130432E0,5.146566E0,1.0276747E0,1.736961E1,3.85459E0,3.837965E0,2.3435E0,2.236885E0,1.6280535E0,5.0490403E0,1.3606943E0,2.21594E0,1.8917153E0,6.6703973E0,1.234425E0,3.6703565E0,1.4793539E0,1.5003165E1,5.818374E0,1.703388E1,7.809625E0],"tree_param":{"num_deleted":"0","num_feature":"23","num_nodes":"109","size_leaf_vector":"1"}},{"base_weights":[-1.6933106E-2,-6.1624974E-1,5.792606E-4,-2.2160381E-1,4.5508685E-4,2.6006383E-1,-4.910386E-2,-1.709415E-1,4.849093E-1,-4.4497386E-1,2.8321862E-2,-4.6669173E-1,1.9231524E-1,6.2844783E-1,-5.6459874E-2,5.1830593E-2,-7.403544E-1,5.426765E-2,-8.0092263E-1,-8.032481E-2,-3.0997518E-1,7.657313E-1,-4.2769637E-2,2.2655852E-1,-1.7341262E-1,2.9787427E-1,-2.51271E-1,-9.114785E-1,2.747799E-2,-2.7444988E-1,1.3120434E-1,-4.467862E-2,-2.8418726E-1,-9.81937E-2,2.0270297E-1,2.5262335E-1,-3.7022687E-2,1.6299234E-1,-2.004896E-1,-1.1672573E-1,2.0948431E-1,1.5434596E-1,-2.1290417E-1,-2.953085E-1,7.990906E-3,1.5882008E-1,-1.0956302E-1,1.8644024E-1,-1.18874125E-1,1.05909735E-1,-1.5453101E-3],"categories":[],"categories_nodes":[],"categories_segments":[],"categories_sizes":[],"default_left":[0,0,0,0,0,0,0,0,0,0,0,0,0,0,0,0,0,0,0,0,0,0,0,0,0,0,0,0,0,0,0,0,0,0,0,0,0,0,0,0,0,0,0,0,0,0,0,0,0,0,0],"id":20,"left_children":[1,3,5,-1,-1,7,9,11,13,15,17,19,-1,21,23,25,27,29,31,33,-1,35,37,39,-1,41,-1,43,45,47,49,-1,-1,-1,-1,-1,-1,-1,-1,-1,-1,-1,-1,-1,-1,-1,-1,-1,-1,-1,-1],"loss_changes":[2.2823975E0,4.6808028E-1,2.7491927E0,0E0,0E0,3.4038377E0,5.498705E0,3.2980402E0,1.8057213E0,4.343963E0,3.2847269E0,2.0474072E0,0E0,1.6996017E0,9.7117347E-1,2.8480377E0,2.4513397E0,3.7540703E0,3.0115032E-1,1.5040587E0,0E0,1.1269398E0,1.8363509E0,1.5518763E0,0E0,2.5561528E0,0E0,1.0606718E0,1.0479816E0,3.324134E0,3.6257102E0,0E0,0E0,0E0,0E0,0E0,0E0,0E0,0E0,0E0,0E0,0E0,0E0,0E0,0E0,0E0,0E0,0E0,0E0,0E0,0E0],"parents":[2147483647,0,0,1,1,2,2,5,5,6,6,7,7,8,8,9,9,10,10,11,11,13,13,14,14,15,15,16,16,17,17,18,18,19,19,21,21,22,22,23,23,25,25,27,27,28,28,29,29,30,30],"right_children":[2,4,6,-1,-1,8,10,12,14,16,18,20,-1,22,24,26,28,30,32,34,-1,36,38,40,-1,42,-1,44,46,48,50,-1,-1,-1,-1,-1,-1,-1,-1,-1,-1,-1,-1,-1,-1,-1,-1,-1,-1,-1,-1],"split_conditions":[3.9464002E0,5.5183277E0,1.8903592E-3,-2.2160381E-1,4.5508685E-4,1.344086E-3,2.5740026E-3,2.520826E2,6.2521286E0,2.352941E-3,3.954189E3,4.3690896E0,1.9231524E-1,2.0526721E0,2.092392E0,1.0572493E2,2.9680662E0,1.569898E0,1.4093829E1,4.2602534E0,-3.0997518E-1,3.389885E2,1.7577187E0,2.1731424E1,-1.7341262E-1,9E0,-2.51271E-1,4.707862E0,4.557793E0,2.7063598E-3,4.4032683E0,-4.467862E-2,-2.8418726E-1,-9.81937E-2,2.0270297E-1,2.5262335E-1,-3.7022687E-2,1.6299234E-1,-2.004896E-1,-1.1672573E-1,2.0948431E-1,1.5434596E-1,-2.1290417E-1,-2.953085E-1,7.990906E-3,1.5882008E-1,-1.0956302E-1,1.8644024E-1,-1.18874125E-1,1.05909735E-1,-1.5453101E-3],"split_indices":[4,11,5,0,0,5,5,15,3,5,21,4,0,20,8,15,11,3,3,4,0,15,3,0,0,16,0,4,4,5,3,0,0,0,0,0,0,0,0,0,0,0,0,0,0,0,0,0,0,0,0],"split_type":[0,0,0,0,0,0,0,0,0,0,0,0,0,0,0,0,0,0,0,0,0,0,0,0,0,0,0,0,0,0,0,0,0,0,0,0,0,0,0,0,0,0,0,0,0,0,0,0,0,0,0],"sum_hessian":[2.1643138E2,5.1740246E0,2.1125735E2,4.15488E0,1.019144E0,3.3268497E1,1.7798886E2,1.1487637E1,2.178086E1,2.8340353E1,1.496485E2,8.732329E0,2.755307E0,1.7089031E1,4.691831E0,1.0874655E1,1.7465698E1,1.460145E2,3.6340113E0,5.870617E0,2.8617125E0,1.4070413E1,3.0186179E0,3.4081497E0,1.2836815E0,9.03915E0,1.8355051E0,1.4129602E1,3.336095E0,2.7206322E1,1.18808174E2,1.0361217E0,2.5978894E0,4.8523803E0,1.0182365E0,1.3006531E1,1.0638822E0,1.6263154E0,1.3923025E0,1.554524E0,1.8536259E0,7.8424816E0,1.1966685E0,1.3065252E1,1.0643501E0,1.3115569E0,2.024538E0,2.7650018E0,2.4441319E1,4.4623657E1,7.418452E1],"tree_param":{"num_deleted":"0","num_feature":"23","num_nodes":"51","size_leaf_vector":"1"}},{"base_weights":[-1.740426E-2,-4.0946502E-2,3.6820942E-1,-5.290988E-3,-3.711963E-1,5.9439653E-1,-4.6914887E-1,-4.656058E-2,5.470179E-1,-9.004449E-1,-5.0130967E-2,-5.824434E-2,7.179243E-1,1.513401E-3,-2.0806026E-1,-2.7576014E-2,-7.0946574E-1,7.822562E-1,-3.202722E-1,-8.953171E-2,-2.9590246E-1,2.7943024E-1,-6.601398E-1,8.1365156E-1,-2.357526E-3,-6.807728E-2,7.1414113E-1,3.5925347E-2,-4.0784657E-1,-1.324499E-1,1.0682412E0,4.6887395E-1,-1.6836324E-1,9.320444E-3,-2.5557053E-1,4.6893805E-2,2.666612E-1,7.4933954E-3,-9.301435E-2,2.2262981E-2,2.7547213E-1,-1.65859E-1,1.8152651E-1,3.5051087E-1,3.2766286E-2,-6.452688E-2,2.5937638E-1],"categories":[],"categories_nodes":[],"categories_segments":[],"categories_sizes":[],"default_left":[0,0,0,0,0,0,0,0,0,0,0,0,0,0,0,0,0,0,0,0,0,0,0,0,0,0,0,0,0,0,0,0,0,0,0,0,0,0,0,0,0,0,0,0,0,0,0],"id":21,"left_children":[1,3,5,7,9,11,13,15,17,19,21,-1,23,-1,-1,25,27,29,-1,-1,-1,31,33,35,-1,37,39,41,-1,-1,43,45,-1,-1,-1,-1,-1,-1,-1,-1,-1,-1,-1,-1,-1,-1,-1],"loss_changes":[1.921829E0,2.33955E0,2.5867426E0,4.1394424E0,3.2449994E0,1.1168542E0,3.3870274E-1,2.1055477E0,5.631108E0,8.064127E-2,2.82013E0,0E0,6.239538E-1,0E0,0E0,5.0113144E0,2.3071167E0,4.5308456E0,0E0,0E0,0E0,1.7305803E0,6.754186E-1,2.4981356E-1,0E0,3.555457E0,1.0604124E0,1.3886089E0,0E0,0E0,8.032484E-1,2.368693E0,0E0,0E0,0E0,0E0,0E0,0E0,0E0,0E0,0E0,0E0,0E0,0E0,0E0,0E0,0E0],"parents":[2147483647,0,0,1,1,2,2,3,3,4,4,5,5,6,6,7,7,8,8,9,9,10,10,12,12,15,15,16,16,17,17,21,21,22,22,23,23,25,25,26,26,27,27,30,30,31,31],"right_children":[2,4,6,8,10,12,14,16,18,20,22,-1,24,-1,-1,26,28,30,-1,-1,-1,32,34,36,-1,38,40,42,-1,-1,44,46,-1,-1,-1,-1,-1,-1,-1,-1,-1,-1,-1,-1,-1,-1,-1],"split_conditions":[9.217272E0,1.5320335E-2,1.1845422E1,8.183306E-3,4.917814E0,1.0017626E0,7.456118E-1,6.4102565E-3,6.8670077E0,1.6051365E-2,2.4169184E-2,-5.824434E-2,2.0813732E0,1.513401E-3,-2.0806026E-1,5.7181883E0,5.068198E0,4.275289E0,-3.202722E-1,-8.953171E-2,-2.9590246E-1,6.204396E2,4.777927E0,1.6933321E1,-2.357526E-3,4.7642164E0,3.4141754E1,4.3363476E0,-4.0784657E-1,-1.324499E-1,1.4742015E-2,2.5743644E0,-1.6836324E-1,9.320444E-3,-2.5557053E-1,4.6893805E-2,2.666612E-1,7.4933954E-3,-9.301435E-2,2.2262981E-2,2.7547213E-1,-1.65859E-1,1.8152651E-1,3.5051087E-1,3.2766286E-2,-6.452688E-2,2.5937638E-1],"split_indices":[4,5,4,5,4,18,8,5,4,5,5,0,8,0,0,4,4,4,0,0,0,21,19,15,0,4,15,4,0,0,5,3,0,0,0,0,0,0,0,0,0,0,0,0,0,0,0],"split_type":[0,0,0,0,0,0,0,0,0,0,0,0,0,0,0,0,0,0,0,0,0,0,0,0,0,0,0,0,0,0,0,0,0,0,0,0,0,0,0,0,0,0,0,0,0,0,0],"sum_hessian":[2.090361E2,1.9785086E2,1.1185252E1,1.7948837E2,1.8362492E1,9.034899E0,2.1503527E0,1.6786115E2,1.16272135E1,6.252021E0,1.2110472E1,1.1462263E0,7.888673E0,1.0046799E0,1.1456728E0,1.6420032E2,3.6608412E0,1.0598562E1,1.0286515E0,1.3393805E0,4.91264E0,8.214474E0,3.8959982E0,6.862477E0,1.0261956E0,1.5655963E2,7.640681E0,2.1454048E0,1.5154365E0,1.9046419E0,8.69392E0,7.0646524E0,1.149821E0,1.0281188E0,2.8678794E0,1.0206985E0,5.8417783E0,1.1372202E2,4.283761E1,2.17737E0,5.4633107E0,1.068598E0,1.0768068E0,7.674369E0,1.0195513E0,2.756569E0,4.3080835E0],"tree_param":{"num_deleted":"0","num_feature":"23","num_nodes":"47","size_leaf_vector":"1"}},{"base_weights":[-1.53523795E-2,-2.7617207E-3,-2.1814938E-1,-1.5585427E-2,2.2954188E-1,7.3750904E-3,-5.479216E-1,-1.36852795E-2,7.256144E-1,-2.5147736E-1,-2.2216279E-2,5.31252E-4,-2.463342E-1,4.275919E-2,2.6466918E-1,1.1029723E-1,-8.736592E-2,-2.941475E-2,4.298073E-2],"categories":[],"categories_nodes":[],"categories_segments":[],"categories_sizes":[],"default_left":[0,0,0,0,0,0,0,0,0,0,0,0,0,0,0,0,0,0,0],"id":22,"left_children":[1,3,-1,5,-1,7,9,11,13,-1,15,17,-1,-1,-1,-1,-1,-1,-1],"loss_changes":[1.8187178E0,1.9875903E0,0E0,2.4279754E0,0E0,2.9005938E0,1.2349691E0,2.1428268E0,3.7308145E-1,0E0,5.212685E-1,2.6088867E0,0E0,0E0,0E0,0E0,0E0,0E0,0E0],"parents":[2147483647,0,0,1,1,3,3,5,5,6,6,7,7,8,8,10,10,11,11],"right_children":[2,4,-1,6,-1,8,10,12,14,-1,16,18,-1,-1,-1,-1,-1,-1,-1],"split_conditions":[6.773286E2,6.703533E2,-2.1814938E-1,3.459713E2,2.2954188E-1,3.2031747E2,1.7254822E1,2.9852682E2,4.2602534E0,-2.5147736E-1,8.12504E0,1.9391391E0,-2.463342E-1,4.275919E-2,2.6466918E-1,1.1029723E-1,-8.736592E-2,-2.941475E-2,4.298073E-2],"split_indices":[15,15,0,15,0,15,2,15,4,0,22,22,0,0,0,0,0,0,0],"split_type":[0,0,0,0,0,0,0,0,0,0,0,0,0,0,0,0,0,0,0],"sum_hessian":[2.0215651E2,1.996293E2,2.5271983E0,1.9731393E2,2.3153756E0,1.9010072E2,7.2132053E0,1.8563834E2,4.4623814E0,4.263837E0,2.9493687E0,1.8340839E2,2.22996E0,1.349233E0,3.1131485E0,1.0544246E0,1.894944E0,1.0866979E2,7.473859E1],"tree_param":{"num_deleted":"0","num_feature":"23","num_nodes":"19","size_leaf_vector":"1"}},{"base_weights":[-1.2407616E-2,3.8351691E-3,-5.60619E-1,-3.740916E-1,2.544125E-2,2.319242E-2,-7.5305307E-1,2.3395209E-2,-6.159747E-1,2.6576772E-1,-1.3085343E-2,-6.934631E-2,-2.515104E-1,1.257908E-1,-2.6579818E-1,-1.763046E-1,-2.3911138E-1,-9.005018E-2,4.5131826E-1,-3.7945145E-1,5.316844E-2,3.133092E-2,-1.4651042E-1,-1.5989691E-1,7.5157344E-2,2.8737476E-1,-7.4087286E-1,1.7512885E-1,7.178878E-1,-5.023571E-1,5.391222E-1,3.56294E-1,-1.1539794E-2,-1.0377423E-1,1.6829444E-1,-8.0429785E-2,-2.6250663E-1,2.257338E-1,-1.00350566E-1,2.5347465E-1,-3.1411864E-2,-2.2192918E-1,-1.7894233E-2,2.4375024E-1,-1.3210592E-2,2.0128962E-1,-2.5716973E-2,1.2828378E-1,-1.6942196E-2],"categories":[],"categories_nodes":[],"categories_segments":[],"categories_sizes":[],"default_left":[0,0,0,0,0,0,0,0,0,0,0,0,0,0,0,0,0,0,0,0,0,0,0,0,0,0,0,0,0,0,0,0,0,0,0,0,0,0,0,0,0,0,0,0,0,0,0,0,0],"id":23,"left_children":[1,3,5,7,9,-1,11,13,15,17,19,-1,-1,-1,21,23,-1,25,27,29,31,-1,-1,-1,-1,33,35,37,39,41,43,45,47,-1,-1,-1,-1,-1,-1,-1,-1,-1,-1,-1,-1,-1,-1,-1,-1],"loss_changes":[1.7916807E0,1.6114265E0,7.68981E-1,1.0405471E0,1.7303387E0,0E0,8.408785E-3,6.840417E-1,3.9059854E-1,1.7449983E0,3.9449506E0,0E0,0E0,0E0,3.3958387E-1,6.252898E-1,0E0,2.5910532E0,1.1356974E0,3.0803328E0,2.707153E0,0E0,0E0,0E0,0E0,1.3806871E0,8.514404E-3,3.1166492E0,9.657688E-1,2.3171272E0,5.8085835E-1,3.4337828E0,2.2842212E0,0E0,0E0,0E0,0E0,0E0,0E0,0E0,0E0,0E0,0E0,0E0,0E0,0E0,0E0,0E0,0E0],"parents":[2147483647,0,0,1,1,2,2,3,3,4,4,6,6,7,7,8,8,9,9,10,10,14,14,15,15,17,17,18,18,19,19,20,20,25,25,26,26,27,27,28,28,29,29,30,30,31,31,32,32],"right_children":[2,4,6,8,10,-1,12,14,16,18,20,-1,-1,-1,22,24,-1,26,28,30,32,-1,-1,-1,-1,34,36,38,40,42,44,46,48,-1,-1,-1,-1,-1,-1,-1,-1,-1,-1,-1,-1,-1,-1,-1,-1],"split_conditions":[2.7898935E1,4.0605717E0,7.264217E-1,4.5509144E1,1.8621974E-3,2.319242E-2,4.3644958E0,7.0644504E-1,6.869028E0,1.344086E-3,2.5740026E-3,-6.934631E-2,-2.515104E-1,1.257908E-1,1.0138721E0,3.9562323E0,-2.3911138E-1,4.4357476E0,4.500907E0,2.1883486E1,2.8368793E-3,3.133092E-2,-1.4651042E-1,-1.5989691E-1,7.5157344E-2,2.1605532E-1,9.909559E-1,4.2530384E0,1.0001943E0,3.8735566E0,8.077321E0,6.562872E-1,7.76468E-4,-1.0377423E-1,1.6829444E-1,-8.0429785E-2,-2.6250663E-1,2.257338E-1,-1.00350566E-1,2.5347465E-1,-3.1411864E-2,-2.2192918E-1,-1.7894233E-2,2.4375024E-1,-1.3210592E-2,2.0128962E-1,-2.5716973E-2,1.2828378E-1,-1.6942196E-2],"split_indices":[22,4,13,15,5,0,4,7,19,5,5,0,0,0,18,4,0,4,4,19,5,0,0,0,0,11,14,4,14,22,9,17,11,0,0,0,0,0,0,0,0,0,0,0,0,0,0,0,0],"split_type":[0,0,0,0,0,0,0,0,0,0,0,0,0,0,0,0,0,0,0,0,0,0,0,0,0,0,0,0,0,0,0,0,0,0,0,0,0,0,0,0,0,0,0,0,0,0,0,0,0],"sum_hessian":[1.999697E2,1.9517978E2,4.7899165E0,9.672758E0,1.8550702E2,1.2486966E0,3.5412202E0,4.001072E0,5.671686E0,2.4814905E1,1.6069211E2,1.0187323E0,2.5224879E0,1.499012E0,2.5020602E0,2.230106E0,3.4415798E0,8.681554E0,1.613335E1,2.3885315E1,1.368068E2,1.1386834E0,1.3633767E0,1.079385E0,1.1507212E0,5.848397E0,2.8331573E0,8.737504E0,7.3958473E0,2.1466232E1,2.4190826E0,2.3273937E1,1.1353286E2,1.6847069E0,4.16369E0,1.2889851E0,1.544172E0,3.8733091E0,4.864195E0,6.383024E0,1.0128231E0,1.3536292E1,7.9299407E0,1.3792332E0,1.0398493E0,1.329283E1,9.981107E0,9.747902E0,1.0378496E2],"tree_param":{"num_deleted":"0","num_feature":"23","num_nodes":"49","size_leaf_vector":"1"}},{"base_weights":[-1.0538474E-2,-1.0308751E-1,7.901724E-2,7.157919E-2,-3.4446752E-1,2.6654637E-1,-4.359321E-2,-5.8482658E-2,3.7548953E-1,-1.5188724E-1,-5.17364E-1,1.2074257E-1,8.064036E-1,-5.6570035E-1,5.265575E-2,-2.1780178E-1,2.8184932E-1,6.294659E-1,-3.260154E-1,2.4472184E-1,-4.3054712E-1,-7.010081E-1,-1.5536164E-1,3.260473E-1,-3.8307208E-1,3.0184734E-1,-2.5195725E-2,-9.4467986E-1,3.5569188E-1,1.6678643E-1,-3.1443855E-1,-3.3299848E-1,3.318329E-1,5.046741E-1,-4.1281068E-1,-1.950614E-1,8.0313534E-1,3.9265856E-2,-1.8874098E-1,-1.8286704E-1,9.431185E-1,-5.59937E-1,5.6148898E-2,-1.7808227E-1,-8.1384695E-1,3.9534563E-1,-5.8854514E-1,4.7414047E-1,-2.5192693E-1,-8.225312E-1,-1.2793917E-2,-3.1433773E-1,-4.9212936E-2,-4.2360067E-2,2.1074258E-1,-3.7165096E-1,2.712414E-1,-5.4820675E-1,4.5328817E-1,-5.1319066E-2,-2.5751242E-1,2.3130581E-1,-4.8840243E-2,3.3323905E-1,9.403799E-3,-2.0313512E-1,4.695849E-2,-1.1690237E-1,2.7085414E-2,2.808838E-1,-3.0309847E-2,9.542024E-2,-1.7065169E-1,4.2418905E-2,4.1999426E-1,1.8372025E-2,-1.9968192E-1,9.207637E-2,-1.7316496E-1,-2.9053876E-1,-3.638298E-2,2.1418636E-1,-4.9373236E-2,-2.4711983E-1,3.8241856E-2,1.8129689E-1,-3.559802E-2,-1.6292474E-1,1.1670539E-1,-3.104689E-1,-5.7189945E-2,1.500178E-1,-1.03324406E-1,-2.2543727E-1,2.5004873E-2,-1.6949838E-1,1.04007825E-1,-2.0461416E-1,9.991247E-2,-3.5532493E-2,2.1775456E-1],"categories":[],"categories_nodes":[],"categories_segments":[],"categories_sizes":[],"default_left":[0,0,0,0,0,0,0,0,0,0,0,0,0,0,0,0,0,0,0,0,0,0,0,0,0,0,0,0,0,0,0,0,0,0,0,0,0,0,0,0,0,0,0,0,0,0,0,0,0,0,0,0,0,0,0,0,0,0,0,0,0,0,0,0,0,0,0,0,0,0,0,0,0,0,0,0,0,0,0,0,0,0,0,0,0,0,0,0,0,0,0,0,0,0,0,0,0,0,0,0,0],"id":24,"left_children":[1,3,5,7,9,11,13,15,17,19,21,23,25,27,29,31,33,35,37,39,41,43,45,47,49,-1,-1,51,53,55,57,59,61,63,65,67,69,-1,-1,71,73,75,-1,77,79,81,83,85,87,89,91,-1,-1,-1,-1,93,95,97,99,-1,-1,-1,-1,-1,-1,-1,-1,-1,-1,-1,-1,-1,-1,-1,-1,-1,-1,-1,-1,-1,-1,-1,-1,-1,-1,-1,-1,-1,-1,-1,-1,-1,-1,-1,-1,-1,-1,-1,-1,-1,-1],"loss_changes":[1.6333672E0,4.1086082E0,2.3160005E0,2.2760713E0,1.2811985E0,3.032414E0,3.1182418E0,2.2736819E0,3.2742586E0,2.3969917E0,1.2940383E0,3.4847631E0,1.5570226E0,3.7061875E0,2.2649088E0,1.9058508E0,2.2895749E0,2.0165086E0,8.077315E-1,2.9181159E0,1.1071343E0,6.644044E-1,2.2335436E0,2.1410496E0,1.5946001E0,0E0,0E0,4.0059948E-1,7.090563E-1,2.403192E0,2.5584197E0,1.8900104E0,1.3016553E0,3.0149364E0,6.8015504E-1,2.0534952E-1,1.4096622E0,0E0,0E0,1.445487E0,1.1403828E0,7.378161E-1,0E0,8.9622045E-1,1.0606208E0,8.829879E-1,9.632338E-1,1.5494089E0,1.2321246E0,4.059019E-1,1.2554691E0,0E0,0E0,0E0,0E0,1.2849648E0,2.395604E0,1.4442563E0,6.394324E-1,0E0,0E0,0E0,0E0,0E0,0E0,0E0,0E0,0E0,0E0,0E0,0E0,0E0,0E0,0E0,0E0,0E0,0E0,0E0,0E0,0E0,0E0,0E0,0E0,0E0,0E0,0E0,0E0,0E0,0E0,0E0,0E0,0E0,0E0,0E0,0E0,0E0,0E0,0E0,0E0,0E0,0E0],"parents":[2147483647,0,0,1,1,2,2,3,3,4,4,5,5,6,6,7,7,8,8,9,9,10,10,11,11,12,12,13,13,14,14,15,15,16,16,17,17,18,18,19,19,20,20,21,21,22,22,23,23,24,24,27,27,28,28,29,29,30,30,31,31,32,32,33,33,34,34,35,35,36,36,39,39,40,40,41,41,43,43,44,44,45,45,46,46,47,47,48,48,49,49,50,50,55,55,56,56,57,57,58,58],"right_children":[2,4,6,8,10,12,14,16,18,20,22,24,26,28,30,32,34,36,38,40,42,44,46,48,50,-1,-1,52,54,56,58,60,62,64,66,68,70,-1,-1,72,74,76,-1,78,80,82,84,86,88,90,92,-1,-1,-1,-1,94,96,98,100,-1,-1,-1,-1,-1,-1,-1,-1,-1,-1,-1,-1,-1,-1,-1,-1,-1,-1,-1,-1,-1,-1,-1,-1,-1,-1,-1,-1,-1,-1,-1,-1,-1,-1,-1,-1,-1,-1,-1,-1,-1,-1],"split_conditions":[7.987671E-1,1.33887E-2,3.003003E-3,2.3122292E-3,9.450055E-1,9.577028E-1,3.5842294E-3,2.130428E2,1.9049485E0,6.5881057E0,7.637058E0,7.8104657E-1,1.1144495E2,5.3273263E0,9.550425E-1,5.5433292E0,6.5518107E0,2.548069E1,3.2546157E-3,7.172493E-1,2.7450924E0,1.0103232E0,1.064482E1,9.200208E-1,1.8874177E0,3.0184734E-1,-2.5195725E-2,1.7926807E2,1.8024943E0,8.4249717E-1,2.1789548E0,1.4752263E-3,9.230769E-3,1.2698014E1,4.1403983E2,5.83422E0,9.999754E-1,3.9265856E-2,-1.8874098E-1,7.9446495E-1,2.1009555E0,1.093259E2,5.6148898E-2,2.3419203E-3,5.660774E0,6.583539E-1,9.2112714E-1,1.1E1,3.4178128E0,1.0394397E0,4.4124737E0,-3.1433773E-1,-4.9212936E-2,-4.2360067E-2,2.1074258E-1,1.3E1,4.209934E0,8.439403E0,9.6145296E-1,-5.1319066E-2,-2.5751242E-1,2.3130581E-1,-4.8840243E-2,3.3323905E-1,9.403799E-3,-2.0313512E-1,4.695849E-2,-1.1690237E-1,2.7085414E-2,2.808838E-1,-3.0309847E-2,9.542024E-2,-1.7065169E-1,4.2418905E-2,4.1999426E-1,1.8372025E-2,-1.9968192E-1,9.207637E-2,-1.7316496E-1,-2.9053876E-1,-3.638298E-2,2.1418636E-1,-4.9373236E-2,-2.4711983E-1,3.8241856E-2,1.8129689E-1,-3.559802E-2,-1.6292474E-1,1.1670539E-1,-3.104689E-1,-5.7189945E-2,1.500178E-1,-1.03324406E-1,-2.2543727E-1,2.5004873E-2,-1.6949838E-1,1.04007825E-1,-2.0461416E-1,9.991247E-2,-3.5532493E-2,2.1775456E-1],"split_indices":[11,11,5,11,14,13,5,21,8,9,22,17,15,4,13,4,9,15,11,20,8,18,22,13,11,0,0,15,11,14,11,11,5,3,21,19,13,0,0,12,3,21,0,5,4,17,12,16,11,18,4,0,0,0,0,6,4,3,13,0,0,0,0,0,0,0,0,0,0,0,0,0,0,0,0,0,0,0,0,0,0,0,0,0,0,0,0,0,0,0,0,0,0,0,0,0,0,0,0,0,0],"split_type":[0,0,0,0,0,0,0,0,0,0,0,0,0,0,0,0,0,0,0,0,0,0,0,0,0,0,0,0,0,0,0,0,0,0,0,0,0,0,0,0,0,0,0,0,0,0,0,0,0,0,0,0,0,0,0,0,0,0,0,0,0,0,0,0,0,0,0,0,0,0,0,0,0,0,0,0,0,0,0,0,0,0,0,0,0,0,0,0,0,0,0,0,0,0,0,0,0,0,0,0,0],"sum_hessian":[1.9508635E2,9.586551E1,9.922083E1,5.6026928E1,3.983858E1,3.8761818E1,6.0459015E1,3.9801147E1,1.622578E1,1.9735136E1,2.0103445E1,3.1482681E1,7.279138E0,8.651433E0,5.1807583E1,2.7355354E1,1.2445791E1,1.1988204E1,4.237577E0,8.194259E0,1.1540877E1,1.2716089E1,7.387356E0,2.261848E1,8.864201E0,5.839138E0,1.4400003E0,6.112156E0,2.5392764E0,3.993678E1,1.1870802E1,2.2941286E1,4.4140677E0,9.6302185E0,2.8155725E0,2.0643153E0,9.923889E0,1.9166982E0,2.320879E0,5.540366E0,2.653892E0,9.619449E0,1.9214294E0,2.7145104E0,1.0001578E1,3.290933E0,4.096423E0,1.8148085E1,4.4703956E0,3.4949195E0,5.3692813E0,5.096714E0,1.015442E0,1.2874167E0,1.2518598E0,6.073177E0,3.3863605E1,9.31912E0,2.5516815E0,1.8549452E1,4.3918343E0,2.0421073E0,2.3719606E0,3.6322029E0,5.998016E0,1.7936128E0,1.0219595E0,1.0099106E0,1.0544047E0,8.619155E0,1.3047343E0,2.4876697E0,3.0526965E0,1.438697E0,1.2151951E0,1.4596069E0,8.159842E0,1.3297329E0,1.3847777E0,7.8505836E0,2.1509945E0,1.9221131E0,1.3688197E0,2.9703336E0,1.1260895E0,1.486435E1,3.2837348E0,3.178992E0,1.2914037E0,2.1384737E0,1.3564459E0,1.9090304E0,3.4602506E0,2.954984E0,3.1181927E0,2.2655923E0,3.1598011E1,8.286626E0,1.0324951E0,1.006296E0,1.5453855E0],"tree_param":{"num_deleted":"0","num_feature":"23","num_nodes":"101","size_leaf_vector":"1"}},{"base_weights":[-1.2842103E-2,2.758258E-3,-5.320284E-1,4.1775845E-2,-2.282565E-1,-1.9967268E-1,8.329314E-3,-3.5431027E-1,7.350408E-2,-3.4487482E-2,-7.734519E-1,-5.5832535E-1,1.5894496E-1,1.72991E-1,-2.523192E-2,-1.8643568E-1,3.494576E-1,-8.483328E-1,-6.929077E-2,2.7066564E-2,-7.348297E-1,1.10861816E-1,-6.668359E-2,2.9594693E-1,-9.364077E-2,-8.144505E-2,5.340184E-1,-6.257356E-1,7.620528E-2,2.6168862E-1,-3.4170854E-1,-7.305879E-2,-2.7789286E-1,-4.3045662E-2,-2.5118503E-1,1.315051E-1,-2.685572E-2,-1.7842457E-1,9.207936E-2,-9.96888E-2,1.5528851E-2,2.3581721E-1,-6.842012E-2,-2.4993502E-1,4.5187086E-2,7.620169E-2,-1.8305588E-1,9.353433E-2,-2.2391914E-1],"categories":[],"categories_nodes":[],"categories_segments":[],"categories_sizes":[],"default_left":[0,0,0,0,0,0,0,0,0,0,0,0,0,0,0,0,0,0,0,0,0,0,0,0,0,0,0,0,0,0,0,0,0,0,0,0,0,0,0,0,0,0,0,0,0,0,0,0,0],"id":25,"left_children":[1,3,5,7,9,-1,-1,11,13,15,17,19,21,23,25,27,29,31,-1,-1,33,-1,-1,35,37,39,41,43,45,-1,47,-1,-1,-1,-1,-1,-1,-1,-1,-1,-1,-1,-1,-1,-1,-1,-1,-1,-1],"loss_changes":[1.5185229E0,1.6575307E0,4.2733443E-1,2.0023575E0,2.780522E0,0E0,0E0,1.3279899E0,1.442698E0,1.2699598E0,8.520937E-2,1.0610788E0,4.1488513E-1,2.4230049E0,2.3812592E0,1.8300573E0,2.5398107E0,4.3587685E-2,0E0,0E0,3.0035257E-1,0E0,0E0,2.7972302E0,4.9636645E0,2.3041039E0,1.509251E0,1.0735786E0,1.4436682E0,0E0,1.1292831E0,0E0,0E0,0E0,0E0,0E0,0E0,0E0,0E0,0E0,0E0,0E0,0E0,0E0,0E0,0E0,0E0,0E0,0E0],"parents":[2147483647,0,0,1,1,2,2,3,3,4,4,7,7,8,8,9,9,10,10,11,11,12,12,13,13,14,14,15,15,16,16,17,17,20,20,23,23,24,24,25,25,26,26,27,27,28,28,30,30],"right_children":[2,4,6,8,10,-1,-1,12,14,16,18,20,22,24,26,28,30,32,-1,-1,34,-1,-1,36,38,40,42,44,46,-1,48,-1,-1,-1,-1,-1,-1,-1,-1,-1,-1,-1,-1,-1,-1,-1,-1,-1,-1],"split_conditions":[1.941388E2,1.1256182E0,5.3273263E0,9.970807E-1,3.609389E0,-1.9967268E-1,8.329314E-3,9E0,5.375383E0,5.154639E-3,5.291005E-3,4.2027542E1,1.0264833E1,4.7885427E0,7.915124E-1,9.507913E-1,1.0695187E-2,3.116306E0,-6.929077E-2,2.7066564E-2,2.493468E-1,1.10861816E-1,-6.668359E-2,4.158004E-3,5.2476945E0,4.5374994E0,1.8202121E0,2.9680662E0,3.389885E2,2.6168862E-1,6.9787407E-1,-7.305879E-2,-2.7789286E-1,-4.3045662E-2,-2.5118503E-1,1.315051E-1,-2.685572E-2,-1.7842457E-1,9.207936E-2,-9.96888E-2,1.5528851E-2,2.3581721E-1,-6.842012E-2,-2.4993502E-1,4.5187086E-2,7.620169E-2,-1.8305588E-1,9.353433E-2,-2.2391914E-1],"split_indices":[0,20,4,3,3,0,0,6,3,5,5,21,19,4,7,22,5,19,0,0,20,0,0,5,4,4,8,11,15,0,7,0,0,0,0,0,0,0,0,0,0,0,0,0,0,0,0,0,0],"split_type":[0,0,0,0,0,0,0,0,0,0,0,0,0,0,0,0,0,0,0,0,0,0,0,0,0,0,0,0,0,0,0,0,0,0,0,0,0,0,0,0,0,0,0,0,0,0,0,0,0],"sum_hessian":[1.863025E2,1.8183351E2,4.468994E0,1.5626077E2,2.5572737E1,3.455632E0,1.013362E0,1.0834832E1,1.4542593E2,1.9651585E1,5.9211526E0,7.6902175E0,3.1446154E0,7.206292E1,7.336302E1,1.4448097E1,5.2034864E0,4.7075543E0,1.2135983E0,1.7497566E0,5.9404607E0,2.0453682E0,1.099247E0,4.9244232E1,2.2818687E1,6.743877E1,5.924251E0,4.8886847E0,9.559413E0,2.8132894E0,2.390197E0,1.008502E0,3.6990523E0,1.2317151E0,4.7087455E0,3.5859425E1,1.3384806E1,9.921869E0,1.2896817E1,2.2872248E1,4.456652E1,4.428267E0,1.4959842E0,3.8004112E0,1.0882735E0,8.092978E0,1.466435E0,1.0019039E0,1.3882931E0],"tree_param":{"num_deleted":"0","num_feature":"23","num_nodes":"49","size_leaf_vector":"1"}},{"base_weights":[-1.608475E-2,1.1477983E-2,-2.9197922E-1,-3.9076027E-2,2.5078115E-1,-5.7088965E-1,2.6592565E-1,-7.594274E-2,7.226201E-1,5.763075E-1,-2.599549E-1,-7.434603E-1,1.17046125E-1,5.24238E-1,-6.922368E-2,4.6121352E-3,-5.629463E-1,2.7789465E-1,-5.7846505E-2,1.5545546E-1,1.0288637E0,-3.4571537E-1,6.011853E-2,3.0820105E-2,-8.6830235E-1,2.0212263E-1,-1.4266649E-1,8.81123E-3,2.2243766E-1,1.0632275E-1,-2.3218513E-1,6.898343E-2,-7.034386E-1,-2.4723317E-1,5.845166E-1,3.306265E-1,9.9228606E-2,4.3487084E-1,-6.333041E-1,-5.2103132E-2,-2.8266528E-1,-3.8210377E-2,1.263133E-1,1.7111935E-2,-2.9027137E-1,-2.2978169E-1,3.2786974E-1,-3.0835512E-1,-4.549924E-2,1.2850705E-1,-2.0055385E-1,2.2997747E-1,-1.9498784E-2,2.1697955E-1,-9.818185E-2,-2.6794603E-1,1.1433514E-2],"categories":[],"categories_nodes":[],"categories_segments":[],"categories_sizes":[],"default_left":[0,0,0,0,0,0,0,0,0,0,0,0,0,0,0,0,0,0,0,0,0,0,0,0,0,0,0,0,0,0,0,0,0,0,0,0,0,0,0,0,0,0,0,0,0,0,0,0,0,0,0,0,0,0,0,0,0],"id":26,"left_children":[1,3,5,7,9,11,13,15,17,19,21,23,25,27,-1,29,31,-1,-1,33,35,-1,37,-1,39,-1,-1,-1,-1,41,43,45,47,49,51,-1,-1,53,55,-1,-1,-1,-1,-1,-1,-1,-1,-1,-1,-1,-1,-1,-1,-1,-1,-1,-1],"loss_changes":[1.391238E0,2.02886E0,2.7372165E0,3.9484153E0,5.0117164E0,1.4398153E0,9.189728E-1,5.2263923E0,1.3899646E0,3.3008332E0,3.5176818E0,1.0659432E0,1.3593221E0,4.5093632E-1,0E0,2.800438E0,1.7271414E0,0E0,0E0,1.9747715E0,7.394028E-2,0E0,2.8314033E0,0E0,2.5547218E-1,0E0,0E0,0E0,0E0,6.0335107E0,7.487223E0,4.5555735E0,2.6289687E0,2.0416393E0,6.91488E-1,0E0,0E0,1.7704707E0,